{"version":"0.5.2","metadata":{"date":{"year":2026,"month":1,"day":31,"hour":22,"minute":41,"second":11},"loudness":-18.800222396850586,"gain":0.7969344449650092,"name":null,"modeled_by":null,"gear_type":null,"gear_make":"Marshall","gear_model":"2203 Jake E Lee mod","tone_type":null,"input_level_dbu":18.22,"output_level_dbu":18.22},"architecture":"WaveNet","config":{"layers":[{"input_size":1,"condition_size":1,"head_size":8,"channels":32,"kernel_size":3,"dilations":[1,2,4,8,16,32,64,128,256,512,1,2,4,8,16,32,64,128,256,512],"activation":"Tanh","gated":false,"head_bias":false},{"input_size":32,"condition_size":1,"head_size":1,"channels":8,"kernel_size":3,"dilations":[1,2,4,8,16,32,64,128,256,512,1,2,4,8,16,32,64,128,256,512],"activation":"Tanh","gated":false,"head_bias":true}],"head":null,"head_scale":0.02},"weights":[0.00030202060588635504,0.27919602394104004,-0.6654297113418579,-0.4376436769962311,-0.0006349297473207116,0.000814799393992871,0.00009782872075447813,0.4716866910457611,0.0012625176459550858,-0.0011896438663825393,-0.0016361444722861052,-0.002472652355208993,-0.867947518825531,-0.43726402521133423,-0.08678225427865982,0.0015386445447802544,0.0007445214432664216,0.3766331672668457,-0.46659016609191895,-0.09156085550785065,0.1889054775238037,0.6506746411323547,-0.0030244833324104548,0.34522995352745056,-0.0010627798037603498,-0.0003340555995237082,0.7001856565475464,-0.8389295339584351,-0.32258543372154236,-0.0025775176472961903,-0.09634095430374146,0.5712339282035828,-0.2381625920534134,-0.016328997910022736,0.07818567007780075,-0.05566044896841049,-0.030010350048542023,0.07207627594470978,0.02413334511220455,0.03755038604140282,0.0396798737347126,-0.08123719692230225,-0.004567155614495277,-0.070193812251091,-0.04791482537984848,-0.047966938465833664,0.09185522794723511,0.08550186455249786,-0.04842173308134079,1.0033949613571167,0.16753506660461426,-0.03492920845746994,0.37876948714256287,0.042542409151792526,0.08335891366004944,-0.09405931085348129,0.1638326346874237,-0.25033068656921387,-0.1023545116186142,0.0548572763800621,0.2407965213060379,-0.16553650796413422,0.07279548048973083,0.03211604058742523,0.0805899053812027,-0.37970349192619324,-0.16540789604187012,-0.37677299976348877,0.0428498201072216,0.09390328824520111,-0.03781929239630699,-0.06633004546165466,0.01972588151693344,0.1135125681757927,0.017956525087356567,0.015901576727628708,0.03629911690950394,0.18513920903205872,-0.12001867592334747,-0.19432124495506287,0.03337130695581436,0.13075397908687592,0.12866021692752838,-0.05597631260752678,0.034102752804756165,-0.05746302008628845,-0.04254528135061264,-0.06197910010814667,0.06859011948108673,-0.12445294857025146,-0.03647405654191971,0.043992336839437485,0.11876337230205536,0.08746638894081116,-0.09487003833055496,-0.03777520731091499,0.05989137291908264,-0.015327373519539833,-0.14284616708755493,0.03914805129170418,-0.03703640028834343,0.10459104925394058,-0.021641744300723076,-0.05065502971410751,-0.03387248143553734,0.18733155727386475,0.07276367396116257,-0.19310426712036133,-0.049310941249132156,-0.1540476232767105,-0.018784044310450554,0.07087577879428864,-0.09607307612895966,0.0729144960641861,0.06537609547376633,-0.046690840274095535,-0.06998588144779205,-0.02723325602710247,0.03550576791167259,-0.16713403165340424,0.1639706939458847,0.31696200370788574,-0.09612557291984558,0.0036648286040872335,-0.09575487673282623,-0.023919975385069847,-0.01718999445438385,-0.08691192418336868,0.06409473717212677,0.22538627684116364,-0.15266457200050354,0.023426521569490433,-0.05686221271753311,-0.040748029947280884,0.04954998940229416,-0.045734986662864685,0.02664942294359207,-0.02291860803961754,-0.0004213364445604384,0.09496187418699265,-0.1340380609035492,-0.03111160174012184,0.02159273624420166,-0.16970551013946533,0.08650505542755127,-0.07533763349056244,0.036547400057315826,0.07891566306352615,0.23396506905555725,-0.06632991880178452,-0.06210597604513168,-0.10356291383504868,0.053364649415016174,0.1987154185771942,0.19710828363895416,-0.0311402827501297,0.1448846310377121,0.11785254627466202,-0.07561314851045609,-0.2502315640449524,0.14446984231472015,0.05629298835992813,0.003938267473131418,-0.37397003173828125,-0.04077884927392006,-0.04305768758058548,-0.027781160548329353,0.02512357383966446,-0.11528053134679794,0.019834004342556,0.13645975291728973,-0.014050138182938099,0.10568567365407944,0.030973464250564575,-0.03662556782364845,-0.3577762246131897,-0.12592948973178864,0.0975375548005104,-0.0642889216542244,-0.09233228862285614,0.04585116729140282,-0.02519109658896923,0.052449095994234085,0.002807438373565674,0.08076860755681992,0.05760009586811066,0.026654010638594627,0.029278336092829704,-0.08204351365566254,0.03395603224635124,0.012892287224531174,0.08472052961587906,-0.03421105816960335,-0.01399049162864685,-0.018238423392176628,0.13010691106319427,-0.23807746171951294,0.03821191191673279,-0.038547877222299576,-0.026872849091887474,-0.09722285717725754,-0.07650448381900787,0.22102312743663788,0.1459183245897293,0.12993934750556946,-0.08453435450792313,-0.014196258969604969,0.1215193122625351,0.012928007170557976,-0.011611687019467354,-0.044914305210113525,-0.0015495236730203032,0.014186318032443523,-0.03125835955142975,0.02733485959470272,0.03772661089897156,0.0717785656452179,-0.20594032108783722,0.0971933901309967,-0.07231404632329941,0.044849563390016556,0.10597868263721466,0.07857634127140045,-0.007982726208865643,0.022868424654006958,-0.015029029920697212,0.28551530838012695,-0.10654082149267197,-0.15369556844234467,0.00955368671566248,0.10341239720582962,0.2266809642314911,0.00239025941118598,0.18262715637683868,0.19393834471702576,-0.08291705697774887,0.005762435495853424,0.03123444877564907,0.1916932463645935,-0.03606056049466133,0.13555161654949188,-0.03731294721364975,0.10493085533380508,-0.1275791972875595,0.4200666844844818,-0.18815171718597412,-0.06627558171749115,-0.07900667190551758,-0.014852771535515785,0.1801954209804535,-0.20171131193637848,-0.04840709641575813,0.08258569240570068,0.09455665946006775,-0.10477375984191895,0.009187201969325542,0.12108584493398666,0.062008678913116455,0.11017865687608719,0.26746925711631775,0.0456891693174839,0.21084600687026978,0.04916054755449295,0.1694217175245285,0.16844820976257324,-0.04876243695616722,0.0014783921651542187,0.10542580485343933,0.07518286257982254,-0.10208258777856827,-0.09334665536880493,0.22513818740844727,-0.07133903354406357,0.00829808134585619,0.11761780828237534,-0.15995410084724426,-0.05057529732584953,-0.07005158066749573,0.08605530112981796,0.16353321075439453,-0.015278802253305912,-0.019680790603160858,-0.017157265916466713,0.031884972006082535,-0.05970103293657303,-0.002507978118956089,0.02360408566892147,-0.06357347220182419,-0.16937632858753204,0.0029307028744369745,-0.10538443922996521,0.16047200560569763,0.3915252089500427,-0.08220230787992477,-0.15451940894126892,-0.04768387973308563,0.042467113584280014,0.13416124880313873,0.12454894930124283,-0.19260165095329285,0.050699084997177124,0.016262410208582878,-0.15398173034191132,-0.12110991030931473,0.03075261600315571,0.027603905647993088,0.16892120242118835,0.038669537752866745,0.11475790292024612,0.10541277378797531,-0.10236702859401703,-0.046239983290433884,0.10902434587478638,-0.09151189029216766,0.09667903929948807,0.16675107181072235,-0.09691976010799408,-0.08214936405420303,-0.10720784962177277,0.009538600221276283,0.023128114640712738,0.13678258657455444,0.04638588801026344,-0.407012015581131,0.9496243596076965,-0.21013890206813812,0.45611315965652466,-0.9077053070068359,0.33400702476501465,0.35403862595558167,-0.9811636805534363,0.20631171762943268,0.15636128187179565,-0.28164708614349365,-0.008646687492728233,-0.045551545917987823,0.137703076004982,-0.19572927057743073,0.08586394786834717,0.039501260966062546,0.11294850707054138,-0.4390595257282257,0.9926782250404358,-0.22630681097507477,0.008299570530653,-0.011024430394172668,0.017954785376787186,-0.14532814919948578,0.18657125532627106,-0.12154370546340942,0.029329275712370872,-0.13081267476081848,0.08715475350618362,-0.008191589266061783,-0.2894369661808014,0.08827169984579086,0.36140361428260803,-0.8843302130699158,0.20871885120868683,0.42901507019996643,-0.9733773469924927,0.18930429220199585,0.373759925365448,-0.7455950975418091,0.3450559079647064,-0.08922992646694183,0.32579657435417175,-0.13051782548427582,-0.20027923583984375,0.26839277148246765,-0.0954412892460823,-0.35339799523353577,0.8318443894386292,-0.31839674711227417,0.30323606729507446,-0.9659037590026855,0.3778940439224243,0.5254486203193665,-0.7374902367591858,0.3953258991241455,-0.335857093334198,0.8283282518386841,-0.27953052520751953,-0.31107139587402344,0.9526442885398865,-0.18045388162136078,0.05640684813261032,-0.12792067229747772,-0.053786348551511765,-0.36107975244522095,0.9041118621826172,-0.31271374225616455,0.045175701379776,-0.1894868165254593,-0.0285375714302063,-0.04468351602554321,0.17588861286640167,-0.1448654681444168,-0.4531196355819702,0.9961235523223877,-0.22242769598960876,0.40248972177505493,-0.9796047210693359,0.3768920302391052,0.4564189016819,-0.9537751078605652,0.3905726373195648,0.24407529830932617,-0.3761703670024872,0.16903255879878998,0.3793327212333679,-0.8642724752426147,0.4029751121997833,-0.40283745527267456,0.8443414568901062,-0.30847403407096863,-0.01901339925825596,-0.0403410829603672,-0.09363172203302383,0.3019542992115021,-0.41507598757743835,-0.08069264888763428,-0.18193554878234863,0.5066958665847778,0.09312145411968231,-0.2888788878917694,0.42094969749450684,-0.04483136534690857,-0.03894776105880737,0.03999492898583412,-0.010363082401454449,-0.0006056617712602019,0.04981452226638794,-0.07709961384534836,-0.09313832968473434,-0.04404943436384201,-0.052078213542699814,0.11560219526290894,-0.3951355218887329,-0.13259580731391907,-0.11196538805961609,-0.05913019925355911,0.07329488545656204,0.1702897846698761,-0.015002168715000153,0.010957827791571617,-0.05944589152932167,-0.002902923384681344,0.09517847746610641,-0.11783824115991592,-0.09128054231405258,-0.04218302667140961,-0.08389812707901001,0.5194275975227356,-0.015553481876850128,-0.11281885951757431,0.4471111297607422,0.08229979127645493,-0.327364444732666,0.32317113876342773,-0.0982384979724884,-0.04991970583796501,0.0795014426112175,-0.049104198813438416,0.036528389900922775,0.09434519708156586,-0.06542227417230606,0.1435481756925583,-0.5175530314445496,-0.07771433144807816,-0.14840257167816162,0.5464716553688049,0.09072034060955048,-0.24963338673114777,0.38277241587638855,-0.11417276412248611,0.13633857667446136,-0.34670209884643555,-0.04663137346506119,0.2407340407371521,-0.5280139446258545,-0.0961228534579277,-0.05404874309897423,-0.07652747631072998,-0.0539049431681633,0.27981024980545044,-0.37017855048179626,0.02431306429207325,0.03688621148467064,-0.020303284749388695,0.04766766354441643,0.036266177892684937,0.010834760032594204,-0.13687725365161896,0.271034836769104,-0.4680194556713104,-0.12832188606262207,-0.2392505556344986,0.5559608936309814,0.14278662204742432,-0.3032817542552948,0.48933544754981995,0.07520811259746552,-0.02155102789402008,0.03130659461021423,0.06351043283939362,-0.1980295330286026,0.4251355230808258,-0.03736642748117447,0.23007239401340485,-0.48149511218070984,0.012535342946648598,-0.04469491168856621,0.1082121804356575,0.239475280046463,-0.011368835344910622,-0.2987076938152313,0.24636918306350708,0.08757976442575455,0.22633369266986847,-0.22461344301700592,0.010838838294148445,0.2762371897697449,-0.3205089271068573,-0.029006222262978554,0.016652002930641174,0.00327037344686687,0.12823806703090668,-0.02367779240012169,-0.07678163796663284,-0.02836376428604126,-0.04448408633470535,-0.10992266237735748,-0.11609461158514023,-0.31936052441596985,0.2484329491853714,0.062344811856746674,-0.0774431824684143,0.04277617111802101,0.016643600538372993,-0.18889574706554413,-0.037002794444561005,0.01350717805325985,0.0012191924033686519,0.07305486500263214,0.07437913864850998,-0.04972381517291069,-0.11970476806163788,-0.014574810862541199,0.33377084136009216,-0.3561176359653473,-0.05925567448139191,0.344064325094223,-0.31126669049263,0.11067410558462143,0.28801628947257996,-0.21298107504844666,-0.06840324401855469,0.05740480124950409,-0.03934910148382187,-0.09748534858226776,-0.11054573208093643,-0.07197348773479462,0.007027067709714174,-0.3221988081932068,0.33085447549819946,0.01089791301637888,0.22178933024406433,-0.16907960176467896,0.1338789463043213,0.3635719418525696,-0.1418839544057846,-0.10111580044031143,-0.33436739444732666,0.20968247950077057,0.05573231354355812,-0.27217695116996765,0.15863192081451416,0.05180078744888306,0.11499106138944626,-0.010232917964458466,-0.12344647198915482,-0.33864983916282654,0.2655305564403534,0.10434523224830627,-0.11309713125228882,-0.029793687164783478,0.06487242132425308,0.13326478004455566,0.08884280174970627,-0.04177585244178772,-0.3241392970085144,0.16451124846935272,0.11811606585979462,0.2783326506614685,-0.2164682000875473,-0.03637712076306343,0.3476496934890747,-0.13602998852729797,0.16479848325252533,0.017051398754119873,-0.05773872137069702,-0.003654281608760357,0.36977314949035645,-0.25365397334098816,-0.07748119533061981,-0.1890154927968979,0.2012012004852295,-0.06133056804537773,-0.07913363724946976,-0.36424872279167175,-0.11612516641616821,0.38109785318374634,-0.17862696945667267,0.05246585234999657,-0.24246294796466827,0.16521404683589935,0.03992266207933426,-0.22625219821929932,0.13666212558746338,-0.03289756178855896,0.11992489546537399,0.0904620811343193,-0.030412541702389717,0.0892006903886795,0.0054740565828979015,0.08277951925992966,-0.04001957178115845,-0.13476689159870148,-0.033098965883255005,0.38671520352363586,-0.08414491266012192,0.10911538451910019,0.08998838067054749,0.23660317063331604,-0.10174974799156189,-0.08309724926948547,0.0234881229698658,-0.021988432854413986,0.02472691610455513,-0.013682846911251545,-0.05470013618469238,-0.06167718768119812,-0.048806365579366684,-0.051843058317899704,-0.24374234676361084,0.046485647559165955,0.11085651069879532,-0.3971659541130066,0.09498351812362671,0.14527283608913422,-0.2853523790836334,0.19918192923069,0.03972164914011955,0.11345356702804565,0.026594460010528564,-0.07413377612829208,-0.09770272672176361,-0.11114920675754547,-0.009596381336450577,0.29247546195983887,-0.12217481434345245,0.09592343121767044,-0.3982338607311249,0.13337337970733643,0.16314458847045898,-0.24085301160812378,0.23338918387889862,-0.07874605804681778,0.3489627540111542,-0.2625967264175415,-0.03670380637049675,0.31160879135131836,-0.07596703618764877,0.01410005334764719,0.02687351405620575,-0.10438995808362961,-0.03813309594988823,0.38015374541282654,-0.14496208727359772,0.030914822593331337,-0.019064605236053467,0.17787513136863708,0.04417453333735466,0.1432475596666336,0.05420998856425285,-0.03107176162302494,0.24483327567577362,-0.06294910609722137,0.04445093125104904,-0.2987334132194519,0.04467412829399109,0.10511791706085205,-0.19625160098075867,0.13399747014045715,-0.1244613528251648,0.09886644780635834,-0.1002216562628746,0.08700081706047058,-0.2530394196510315,0.09674251824617386,0.005547796376049519,0.23799051344394684,-0.07755336165428162,-0.18896813690662384,-0.45493897795677185,0.19836820662021637,0.056792475283145905,-0.04258272796869278,0.03045038692653179,0.02596261352300644,-0.0469517819583416,-0.04323345795273781,-0.057883936911821365,0.09648077189922333,0.01465271133929491,-0.01278084609657526,-0.04650336503982544,0.05843386799097061,0.011033405549824238,-0.03444233536720276,0.15953826904296875,0.045325588434934616,-0.1644546538591385,0.14186392724514008,-0.01017080619931221,0.09376499056816101,-0.12620079517364502,0.11773688346147537,-0.006721009500324726,-0.15342800319194794,0.06071000546216965,0.027564819902181625,0.024154873564839363,-0.06393326818943024,-0.10248781740665436,0.02625955082476139,-0.29579707980155945,-0.382591187953949,-0.16280429065227509,-0.041941866278648376,0.01299726590514183,0.13240988552570343,0.006699731573462486,0.04549664258956909,0.13052859902381897,0.08820749074220657,-0.07490116357803345,0.018664423376321793,-0.00978878978639841,0.06810714304447174,-0.07292711734771729,0.13359294831752777,0.16613216698169708,0.029506342485547066,-0.0012040500296279788,-0.049241483211517334,0.026942845433950424,-0.005906619597226381,-0.07128459960222244,0.060921698808670044,0.08316297829151154,-0.117192342877388,0.11445347964763641,0.008104835636913776,-0.05102056637406349,-0.04640424624085426,0.05444582179188728,-0.08197076618671417,-0.07779514789581299,-0.07507944852113724,-0.2871965765953064,0.20943574607372284,0.02052861824631691,0.06413731724023819,-0.10617334395647049,0.10240679234266281,-0.1369892805814743,0.32587194442749023,-0.13209861516952515,-0.11206934601068497,0.006515384651720524,-0.02716796286404133,0.0035839409101754427,-0.10203532874584198,-0.0035455471370369196,-0.022733749821782112,-0.049494899809360504,0.03222876414656639,0.010027574375271797,0.03802979364991188,-0.0705881118774414,-0.06861820816993713,0.024116715416312218,-0.007048136554658413,-0.05340537056326866,-0.03709429129958153,-0.10013330727815628,-0.023371132090687752,-0.06602530926465988,0.05649562552571297,0.10129019618034363,0.16030941903591156,-0.06942000985145569,0.11323794722557068,0.08580302447080612,0.07832328975200653,-0.20154805481433868,0.010792653076350689,-0.0010468894615769386,-0.17651857435703278,-0.035664673894643784,0.03280062973499298,-0.006795077119022608,-0.0786832794547081,0.059227947145700455,-0.02027805708348751,-0.0007519005448557436,0.16804622113704681,-0.07560178637504578,-0.07275677472352982,-0.021230723708868027,0.19655601680278778,-0.01408237125724554,0.1601894348859787,-0.0947069376707077,-0.2952742874622345,-0.040834810584783554,0.06289276480674744,0.20640122890472412,-0.009784934110939503,-0.06334908306598663,0.10045324265956879,0.06580496579408646,0.09635552018880844,-0.002798484405502677,-0.011351264081895351,-0.19244012236595154,-0.04753376916050911,0.013633382506668568,-0.14893904328346252,0.06233997642993927,0.05868477746844292,-0.05365241691470146,0.006165252532809973,0.014825166203081608,-0.09282193332910538,-0.15475331246852875,-0.06496275216341019,0.019766760990023613,0.15598691999912262,0.06004510074853897,0.09817958623170853,-0.025011437013745308,0.024562189355492592,-0.2195211797952652,0.003042102325707674,-0.02592717669904232,0.009198690764605999,-0.07387503236532211,0.06465761363506317,0.18031272292137146,-0.015642303973436356,0.008931847289204597,0.24440841376781464,-0.03111182153224945,0.0359610989689827,-0.06187182292342186,-0.12678512930870056,0.02437467873096466,0.14415308833122253,-0.011510474607348442,-0.03059850074350834,0.02114342898130417,-0.08773807436227798,0.08450973778963089,0.012829164043068886,-0.1693640798330307,-0.037265483289957047,0.13548922538757324,-0.03418581560254097,-0.11793416738510132,-0.22511717677116394,0.08326392620801926,0.05983838811516762,-0.059367112815380096,0.05416352301836014,-0.016056280583143234,0.09246713668107986,0.016859082505106926,-0.03614344820380211,-0.005698821507394314,0.03968508169054985,0.07685425132513046,0.10487788170576096,0.06936363875865936,0.07026224583387375,-0.02125042863190174,-0.07627429813146591,-0.0934256985783577,0.24311009049415588,0.002436748705804348,0.24196161329746246,-0.06701216101646423,0.1863248497247696,0.1250901073217392,-0.22464077174663544,0.06929314136505127,0.16392117738723755,-0.16981518268585205,-0.18091438710689545,0.21427947282791138,-0.0515863299369812,-0.2015012949705124,-0.12104018032550812,0.088252954185009,0.09486111998558044,-0.21321669220924377,0.18600928783416748,-0.09891782701015472,0.01819780468940735,-0.030731897801160812,-0.3736082911491394,-0.044675592333078384,-0.015459165908396244,-0.0060169510543346405,-0.04242561012506485,-0.07300896942615509,0.15709105134010315,0.07296682149171829,-0.01962411217391491,-0.04666769504547119,0.0562322624027729,-0.059786949306726456,0.21050944924354553,0.1986229568719864,-0.079146608710289,0.0220858883112669,0.13640129566192627,-0.3060789108276367,0.1143466904759407,-0.09384932368993759,0.10805141925811768,0.17358098924160004,0.021420391276478767,0.00046775295049883425,-0.026741011068224907,-0.21824678778648376,0.19025634229183197,-0.15362189710140228,0.08186598122119904,-0.18239785730838776,0.02172893099486828,0.0019292776705697179,-0.14343291521072388,0.11739414185285568,-0.0952976867556572,0.1266689896583557,-0.030423227697610855,-0.14043252170085907,0.06340953707695007,-0.09354070574045181,0.25282883644104004,-0.22468043863773346,-0.39173424243927,-0.11794440448284149,0.2279634028673172,-0.16578172147274017,-0.09106249362230301,-0.06493271142244339,-0.1744774878025055,0.06408518552780151,-0.0024541672319173813,-0.10194205492734909,-0.20731975138187408,0.1429091840982437,-0.06373241543769836,0.24418535828590393,-0.23067176342010498,0.17607764899730682,0.08881033211946487,-0.2598365247249603,0.12173828482627869,0.09324432909488678,-0.1174304410815239,-0.3739537298679352,0.025168554857373238,-0.19157330691814423,0.0375225804746151,-0.0788864865899086,0.14680792391300201,-0.03620346263051033,-0.10965567082166672,-0.06917466968297958,-0.291109561920166,0.2861385643482208,0.19143210351467133,-0.2371756136417389,-0.30030736327171326,-0.21580667793750763,0.17613497376441956,-0.3687153458595276,-0.1859201192855835,0.11065933853387833,-0.028097504749894142,0.15789203345775604,0.11559653282165527,-0.0514068678021431,-0.03774705529212952,-0.023750437423586845,-0.22987857460975647,0.14502611756324768,0.11420193314552307,0.22600160539150238,0.1876261830329895,-0.12793265283107758,0.00026855780743062496,0.15572477877140045,0.3825787305831909,0.03844047710299492,0.01866476982831955,-0.14654439687728882,0.028981229290366173,0.0713457316160202,0.1507069617509842,-0.17244920134544373,-0.13048529624938965,-0.07492212951183319,-0.3334157168865204,-0.13710634410381317,0.2590608596801758,-0.28006646037101746,-0.19445307552814484,0.15582364797592163,-0.29379481077194214,-0.11796785145998001,0.11626441776752472,-0.014204937033355236,0.013163588009774685,0.04031261429190636,0.04428952932357788,0.1190597414970398,-0.11138584464788437,0.22229284048080444,0.2541135549545288,-0.15918193757534027,-0.2220458984375,-0.14662425220012665,0.09450170397758484,-0.19416172802448273,-0.13980980217456818,0.17816945910453796,0.33734962344169617,0.21725444495677948,-0.30898281931877136,0.282004714012146,0.2867167294025421,-0.14529938995838165,0.044508785009384155,-0.009654711000621319,0.025834811851382256,0.37197598814964294,0.22925902903079987,-0.09488756954669952,0.030502064153552055,-0.03847082331776619,0.2025909423828125,-0.15218673646450043,0.033565495163202286,-0.09076839685440063,0.3221626281738281,0.18817421793937683,-0.1373480260372162,-0.3660547435283661,-0.10567712038755417,0.08085447549819946,-0.37818431854248047,-0.2015254646539688,0.27962809801101685,0.11035707592964172,0.016915729269385338,0.10976794362068176,-0.2266966700553894,-0.16537488996982574,0.2575210630893707,0.3551982343196869,0.25419023633003235,-0.19028803706169128,0.03303057700395584,0.007507893722504377,0.07025175541639328,0.08726424723863602,-0.34433865547180176,-0.08550553768873215,-0.03887231647968292,0.3157375454902649,0.17090609669685364,-0.10202628374099731,0.3215641379356384,0.14840276539325714,-0.01977682113647461,-0.03600972518324852,0.23606637120246887,0.024340247735381126,-0.16221728920936584,-0.04700852930545807,-0.035227034240961075,-0.07474224269390106,0.11762328445911407,0.010584995150566101,-0.3775939345359802,-0.2690553367137909,-0.03465402498841286,-0.031252797693014145,0.13632716238498688,-0.026744844391942024,0.13044939935207367,-0.2819991409778595,-0.04716038331389427,0.00915929302573204,0.048810578882694244,-0.13565248250961304,-0.23357681930065155,0.08764772117137909,-0.09262443333864212,0.3359423875808716,0.11135668307542801,-0.08048013597726822,0.36417073011398315,0.08398086577653885,-0.14990702271461487,0.29406145215034485,0.18113493919372559,0.011397981084883213,-0.06008271127939224,-0.08325671404600143,0.04444553703069687,0.12360017746686935,-0.1186419129371643,-0.0721336230635643,-0.33282190561294556,-0.1360527127981186,-0.059338655322790146,0.27610719203948975,0.2086881399154663,-0.14882035553455353,0.2522512674331665,0.04589948430657387,0.08112434297800064,-0.36000263690948486,-0.05466234311461449,-0.09166498482227325,-0.4248403310775757,-0.17118358612060547,0.005581039935350418,-0.17017586529254913,0.24442467093467712,0.10706499218940735,-0.33545565605163574,-0.11994796991348267,-0.019468173384666443,-0.07133708894252777,0.0185236856341362,-0.030664073303341866,-0.13740818202495575,-0.210937961935997,0.014077208004891872,-0.3399754762649536,-0.21042485535144806,-0.0544416718184948,0.3141021132469177,0.2564001977443695,-0.09677259624004364,0.22875240445137024,0.12394531071186066,-0.0037385940086096525,-0.05782129243016243,0.19028684496879578,-0.07043585181236267,0.20937368273735046,0.11508861929178238,-0.027487799525260925,-0.25542518496513367,-0.2788926959037781,-0.11220035701990128,-0.03672923520207405,-0.049788836389780045,-0.02343779429793358,-0.08626043051481247,-0.0075242710299789906,0.12092171609401703,0.2603868842124939,-0.0202597975730896,0.1983807533979416,0.1857791393995285,-0.1414378136396408,0.06986596435308456,0.06795758754014969,-0.22573357820510864,-0.07721490412950516,-0.051540765911340714,-0.22058913111686707,0.0677734985947609,-0.06983670592308044,0.15776792168617249,-0.15602777898311615,-0.26372212171554565,0.15789073705673218,-0.1119779571890831,-0.1162765771150589,-0.02613663859665394,-0.05317581817507744,-0.17629607021808624,0.09376073628664017,-0.12765558063983917,-0.08393274247646332,0.15961705148220062,0.040117986500263214,-0.04551702365279198,0.25173407793045044,0.20186807215213776,0.2247483730316162,-0.08188548684120178,0.12264388054609299,0.1777544468641281,-0.01796482503414154,-0.006553895305842161,0.17936231195926666,0.01160375028848648,0.10680228471755981,0.02996181882917881,-0.15855863690376282,0.01253447588533163,-0.09826377034187317,0.14351169764995575,-0.17352384328842163,-0.1569099873304367,0.07317978888750076,0.18475964665412903,0.10296336561441422,-0.16152985394001007,0.12294267863035202,0.15006615221500397,-0.1942499428987503,-0.15864871442317963,-0.23663100600242615,0.04014364257454872,-0.16279467940330505,-0.12028003484010696,0.0411987230181694,0.042914558202028275,0.16019383072853088,0.0017917887307703495,-0.19641655683517456,-0.13766340911388397,0.10723793506622314,-0.11555954068899155,-0.037095341831445694,0.0339723564684391,0.11521407961845398,-0.024971263483166695,0.18040482699871063,-0.03662386164069176,-0.27751922607421875,0.09871898591518402,0.17142309248447418,0.23709124326705933,0.04109000787138939,0.1823023408651352,0.2640001177787781,-0.08616906404495239,0.02422386035323143,0.0915658250451088,-0.00405228091403842,0.06195806339383125,0.11991642415523529,-0.007013438269495964,-0.05877092108130455,-0.14358064532279968,0.12315025180578232,0.0062766713090240955,-0.10216516256332397,-0.01203117799013853,0.2968370020389557,0.2093959003686905,-0.17820294201374054,-0.32353827357292175,-0.09754779189825058,0.089015431702137,-0.35108286142349243,-0.1015242263674736,0.19699536263942719,-0.11274079978466034,-0.06507079303264618,-0.05263357609510422,-0.04713258147239685,0.009578288532793522,-0.04073931649327278,-0.034670814871788025,0.05471925064921379,0.12648355960845947,0.28960493206977844,0.2337171584367752,-0.03457406908273697,-0.1407914012670517,0.08927763998508453,0.15510766208171844,0.008246381767094135,-0.101777583360672,-0.08217080682516098,0.06692158430814743,0.017957067117094994,0.005750142503529787,-0.09812849760055542,-0.05974559113383293,-0.07203779369592667,-0.3925429582595825,-0.2671566605567932,0.1846272349357605,-0.26064807176589966,-0.17803874611854553,0.1397009789943695,-0.2853719890117645,-0.1849222481250763,0.03740349039435387,0.09468284994363785,-0.0011327301617711782,-0.07547537237405777,0.10511822998523712,-0.052721720188856125,-0.03160596638917923,0.18345600366592407,0.2655693590641022,-0.06562203913927078,-0.33565014600753784,-0.2104312777519226,0.1708817332983017,-0.28139859437942505,-0.07306583225727081,0.18879176676273346,0.1952669471502304,0.14957129955291748,-0.15171143412590027,0.3721838891506195,0.15240143239498138,-0.14301760494709015,0.03802995756268501,-0.08776004612445831,0.017553692683577538,0.371990829706192,0.12567450106143951,-0.029221046715974808,0.07547561079263687,0.08137264102697372,0.04110386222600937,0.040718719363212585,-0.05491293966770172,-0.15257275104522705,0.3283526599407196,0.20670625567436218,-0.06329681724309921,-0.19723546504974365,-0.25758305191993713,0.16703134775161743,-0.23449061810970306,-0.10681169480085373,0.17879465222358704,-0.02645106241106987,-0.10911666601896286,0.11657297611236572,-0.3076736032962799,-0.07079049199819565,0.059786032885313034,0.25732186436653137,0.19697093963623047,-0.09625688195228577,0.06316734105348587,-0.06820470094680786,0.16530165076255798,0.27608349919319153,-0.10463948547840118,-0.2295641303062439,-0.2363387793302536,0.19662043452262878,0.28255096077919006,-0.15135344862937927,0.21670272946357727,0.14398108422756195,-0.07696576416492462,0.06113297864794731,0.12815386056900024,0.018017638474702835,-0.03357589989900589,0.05941271036863327,0.24721090495586395,-0.018023386597633362,0.0691046267747879,0.19277343153953552,-0.17617841064929962,-0.19507288932800293,0.15221825242042542,0.026041459292173386,0.05748276039958,0.06239017844200134,-0.026591727510094643,-0.03321409970521927,-0.04368571937084198,-0.03772673383355141,-0.041691284626722336,-0.10065780580043793,-0.0907745435833931,0.2679567337036133,-0.1572648286819458,0.3317784070968628,0.2917001247406006,-0.23671437799930573,0.28216353058815,0.07936975359916687,-0.3403747081756592,0.1752067357301712,0.12714073061943054,0.021512990817427635,0.0764496698975563,-0.11198481172323227,-0.05625278130173683,-0.06759027391672134,0.025607876479625702,0.2915644943714142,-0.2668232023715973,-0.2781376540660858,-0.31952545046806335,0.2270762175321579,0.25266343355178833,-0.3200208842754364,0.09244309365749359,0.07065872102975845,0.26237890124320984,-0.2785414457321167,-0.22243036329746246,0.3338640332221985,-0.28204643726348877,-0.21313799917697906,0.016606369987130165,-0.019875995814800262,0.1473127007484436,0.2746879756450653,-0.25674790143966675,-0.1806347519159317,-0.04954083636403084,-0.046836983412504196,-0.02446749433875084,0.029332220554351807,-0.04641897976398468,-0.052725400775671005,0.2822836637496948,-0.3302755057811737,-0.21897798776626587,-0.2482365369796753,0.20605379343032837,0.24358302354812622,-0.2974521815776825,0.19018489122390747,0.1371290385723114,-0.10688532888889313,-0.031018074601888657,0.29975569248199463,-0.21419641375541687,0.22946445643901825,0.22448168694972992,0.20151449739933014,-0.2254413366317749,-0.17559915781021118,0.08481602370738983,0.2349490225315094,0.009093077853322029,-0.2094048708677292,-0.4475788474082947,0.1180851012468338,0.2283175140619278,0.4152008891105652,-0.0552547425031662,0.20826414227485657,0.36976853013038635,-0.22392535209655762,0.09859968721866608,-0.020989276468753815,-0.07610271871089935,-0.04045730084180832,0.09811338037252426,-0.008168181404471397,-0.010079056955873966,0.14735698699951172,-0.028081025928258896,-0.2211722582578659,-0.43885907530784607,0.20980483293533325,0.029457148164510727,-0.014238931238651276,0.011950806714594364,0.009142610244452953,0.07977459579706192,-0.023834094405174255,0.058482758700847626,-0.0497930683195591,0.002795125124976039,0.1381346732378006,0.07430974394083023,0.20870064198970795,0.12293964624404907,0.468454509973526,-0.12388159334659576,0.11854621767997742,0.31338557600975037,-0.24937665462493896,0.06779295206069946,0.24501419067382812,-0.16294482350349426,-0.09349140524864197,0.02535247802734375,-0.11723943799734116,0.03286508470773697,-0.029479041695594788,-0.16503940522670746,-0.1530807614326477,-0.3281532824039459,0.2214488834142685,0.04567241296172142,0.3478929400444031,-0.17075832188129425,0.06841672211885452,0.3862088918685913,-0.1973385363817215,-0.036557670682668686,-0.3212807774543762,0.17967264354228973,-0.1929897516965866,-0.4197990298271179,0.18204128742218018,-0.04602421075105667,0.001309803337790072,0.12002971768379211,-0.19237330555915833,-0.3338058590888977,0.2461787909269333,0.07775337994098663,-0.10573180019855499,-0.00467052822932601,0.005474970676004887,0.006347761955112219,0.05964535474777222,-0.1852203905582428,-0.356888085603714,0.2548985183238983,0.17752674221992493,0.3805563747882843,-0.12391416728496552,0.06300824880599976,0.2738160192966461,-0.23492880165576935,-0.02322930470108986,-0.05586162954568863,0.017444472759962082,0.05785379558801651,0.23706935346126556,-0.1227056235074997,-0.18078771233558655,-0.4099423885345459,0.05511593818664551,-0.08667051792144775,0.07359299808740616,-0.15779408812522888,0.04230840876698494,0.06687454134225845,-0.31091630458831787,-0.1261201947927475,-0.002577484818175435,0.3224659562110901,-0.15637162327766418,0.028943808749318123,0.31131306290626526,-0.026541611179709435,0.19045348465442657,0.042809490114450455,0.1301359087228775,-0.06137089058756828,0.19991253316402435,-0.13916227221488953,-0.034306567162275314,-0.2133028358221054,0.0711917132139206,0.028199724853038788,-0.2347000688314438,-0.015811903402209282,0.05316229909658432,-0.03505668789148331,-0.010603738948702812,-0.337502121925354,-0.024857185781002045,0.08555999398231506,0.1285950094461441,-0.024100491777062416,0.1525530219078064,0.16538091003894806,0.1926480382680893,-0.07360122352838516,0.018954070284962654,0.30775418877601624,-0.08861379325389862,-0.04389946162700653,0.28833749890327454,-0.14036232233047485,-0.022719640284776688,0.18044248223304749,0.08475571870803833,-0.11235659569501877,0.18560701608657837,0.07745829969644547,-0.14334595203399658,-0.0311292614787817,0.09858435392379761,-0.005925766658037901,-0.34770098328590393,-0.16058911383152008,0.11528429388999939,0.34836864471435547,-0.07631609588861465,0.047458112239837646,0.2585780620574951,0.1766272485256195,0.07361964136362076,-0.26056188344955444,0.07014206051826477,0.04886309430003166,-0.27795732021331787,-0.016548609361052513,0.13013531267642975,0.07346753031015396,0.17728744447231293,0.06609155237674713,-0.24659454822540283,0.0929533839225769,0.07570085674524307,-0.0038856319151818752,-0.08718616515398026,-0.01629205234348774,0.1792745590209961,0.03434538096189499,0.0070695593021810055,-0.3191722333431244,-0.1442137062549591,0.06988728791475296,0.30406439304351807,-0.1769219934940338,-0.061751194298267365,0.30439552664756775,0.0675899013876915,0.1592525839805603,-0.01820833794772625,-0.06763284653425217,0.006119114346802235,0.14182615280151367,0.019357889890670776,0.00343688833527267,-0.21104367077350616,-0.09622421860694885,0.05328378453850746,-0.014708227477967739,0.10828233510255814,0.5125908255577087,-0.1623525619506836,0.013983438722789288,-0.4319913983345032,0.10918890684843063,-0.022747812792658806,-0.42590615153312683,0.15209980309009552,0.054959025233983994,-0.035510819405317307,-0.050673648715019226,-0.0022256451193243265,-0.14540226757526398,0.0633506029844284,-0.09814897924661636,-0.281916081905365,-0.08931317180395126,-0.04911894351243973,0.41546064615249634,-0.11022323369979858,-0.0925680622458458,-0.24706332385540009,-0.1756882667541504,0.12595663964748383,0.17438487708568573,-0.008549176156520844,-0.061051882803440094,0.09369828552007675,-0.06353799998760223,0.039068516343832016,-0.06704063713550568,-0.01289205439388752,-0.010909420438110828,-0.5658470392227173,0.2136726826429367,-0.061136599630117416,-0.4940125346183777,0.09033625572919846,0.06751494109630585,-0.5063278675079346,0.1276606023311615,0.03577350825071335,-0.05499649420380592,-0.09710262715816498,0.0494227297604084,0.03412197530269623,0.10791382193565369,0.018344027921557426,0.5630359649658203,-0.10800550878047943,0.05355913192033768,-0.5382932424545288,0.2586033046245575,-0.03949062153697014,-0.413261353969574,0.19424186646938324,-0.007560573052614927,0.42431604862213135,-0.11796901375055313,-0.0380483902990818,0.50212562084198,-0.24618101119995117,-0.05133955925703049,0.01810343936085701,-0.04565420746803284,0.09751538932323456,0.5118006467819214,-0.17601972818374634,0.05269474536180496,-0.014736746437847614,-0.03430797904729843,-0.020138544961810112,-0.1758558750152588,0.08797000348567963,0.029075143858790398,0.4619288146495819,-0.19789792597293854,-0.058404482901096344,-0.47158294916152954,0.11563730239868164,-0.10494811832904816,-0.4951011538505554,0.15213283896446228,0.016791759058833122,0.03573952987790108,-0.1043098047375679,0.005470620933920145,-0.4503478407859802,0.13533249497413635,-0.005560898222029209,0.44149166345596313,-0.09789081662893295,-0.07485372573137283,0.15345323085784912,0.05595576763153076,-0.1609775722026825,-0.16701099276542664,0.04368852451443672,0.14443491399288177,0.3713357150554657,-0.04252791404724121,0.08856192231178284,0.20014458894729614,-0.1216057538986206,-0.06636008620262146,0.11685275286436081,-0.08629308640956879,0.02132526785135269,-0.0402894951403141,-0.10101225972175598,-0.03747698292136192,0.12334375083446503,0.06963047385215759,-0.12302834540605545,-0.26914292573928833,0.027141941711306572,-0.02788001485168934,0.07889678329229355,-0.07712861150503159,-0.05921964719891548,-0.13897033035755157,0.13780483603477478,0.024177659302949905,0.09282562136650085,0.060955509543418884,0.08503406494855881,0.16729331016540527,0.031459879130125046,0.20495398342609406,0.33419230580329895,-0.03595705330371857,0.13899792730808258,0.2779647409915924,-0.08038497716188431,0.02294565923511982,0.2341884821653366,-0.14097614586353302,0.025263113901019096,-0.06063438579440117,-0.039783112704753876,0.030175471678376198,0.0326753705739975,-0.03907059133052826,-0.06718451529741287,-0.22840304672718048,0.13174952566623688,0.17153701186180115,0.31985482573509216,-0.0069184573367238045,0.12768656015396118,0.21833492815494537,-0.19387111067771912,-0.154959574341774,-0.2017091065645218,0.13528382778167725,-0.17750893533229828,-0.3810025155544281,0.04728567972779274,-0.07193472236394882,0.13946989178657532,-0.17508091032505035,-0.08179697394371033,-0.3600548803806305,-0.016725663095712662,-0.044072072952985764,-0.03610806167125702,-0.0003950037353206426,-0.009853976778686047,0.14780019223690033,0.28557413816452026,-0.14273548126220703,-0.19308145344257355,0.03205934539437294,0.1106768548488617,0.2710639238357544,-0.06162017956376076,0.05498311296105385,0.16877979040145874,-0.04505704343318939,0.009351821616292,0.09055519849061966,-0.09453427046537399,0.14464059472084045,0.18272823095321655,-0.058670010417699814,-0.13586463034152985,-0.2104770988225937,0.12330925464630127,0.04487443342804909,0.03851943090558052,-0.18083897233009338,0.060945481061935425,-0.37788310647010803,0.1502549797296524,0.14832183718681335,0.44490960240364075,-0.08848924934864044,-0.015250775031745434,0.33886852860450745,-0.0166635625064373,-0.015857893973588943,0.1407192349433899,0.1176527813076973,-0.03371979668736458,-0.1027468740940094,-0.05927380546927452,-0.17640836536884308,0.0760078877210617,0.11031142622232437,-0.11454721540212631,-0.3751891255378723,-0.006069540046155453,-0.1026775985956192,0.12753243744373322,0.05969613790512085,-0.016945084556937218,0.024704767391085625,-0.004297387320548296,0.01992928609251976,0.0070975483395159245,-0.046700574457645416,-0.05540242791175842,0.06866626441478729,0.19681191444396973,0.14513693749904633,0.3504340946674347,-0.1351860612630844,0.004941463470458984,0.2958785593509674,-0.0654854029417038,0.017301397398114204,0.3257431983947754,0.028106870129704475,0.012055598199367523,-0.02181015908718109,0.02332032285630703,0.1116805151104927,-0.01989823207259178,-0.07069873809814453,-0.027967877686023712,-0.4454757869243622,0.08874564617872238,0.03443891555070877,0.2479286938905716,0.029809897765517235,-0.050959717482328415,0.2831389307975769,0.02754243090748787,-0.022607360035181046,-0.25361859798431396,0.12635521590709686,0.037610024213790894,-0.38246041536331177,-0.020894095301628113,-0.041641995310783386,0.025415707379579544,-0.008097171783447266,0.04230903089046478,-0.3334499001502991,0.07374253869056702,-0.02587440237402916,0.05398545414209366,-0.008088122121989727,0.023936402052640915,-0.01564147137105465,0.3128747045993805,0.02106058970093727,-0.3439539074897766,0.08441891521215439,0.09242720901966095,0.2694855332374573,-0.12500150501728058,-0.05509118735790253,0.3206782042980194,-0.11129934340715408,0.0023599769920110703,-0.059586066752672195,-0.021471528336405754,0.030708733946084976,0.38458117842674255,0.02374592237174511,-0.09464211761951447,-0.3560257852077484,0.044749900698661804,-0.006837520748376846,-0.07181380689144135,0.17836962640285492,-0.11127149313688278,-0.008717010729014874,-0.03362061083316803,0.02952336147427559,0.17905034124851227,0.11640316992998123,0.054335661232471466,0.024860644713044167,0.0970124676823616,-0.09161603450775146,-0.10479161888360977,-0.06204397976398468,-0.05352260544896126,-0.054909732192754745,0.206157386302948,-0.14976343512535095,-0.05587182566523552,-0.006098365876823664,-0.13392026722431183,-0.10983499884605408,-0.06557333469390869,-0.04016163945198059,0.06589463353157043,0.13247382640838623,0.026150118559598923,-0.11432000249624252,-0.09586168825626373,0.0780213251709938,0.014628488570451736,0.025671295821666718,0.01231811847537756,0.1760217845439911,0.23942959308624268,0.09492213279008865,0.21956780552864075,-0.0718790665268898,0.006195717491209507,0.16370923817157745,0.0021190305706113577,-0.04483805224299431,0.10555820167064667,0.04261625558137894,0.09771314263343811,-0.06417763233184814,-0.22322456538677216,0.14469516277313232,-0.06017446145415306,0.10066303610801697,0.017038125544786453,-0.049314308911561966,-0.08235366642475128,0.05186845362186432,0.14591749012470245,-0.03704328462481499,0.11980006843805313,-0.048059239983558655,0.0320751890540123,-0.11942023038864136,-0.017775883898139,0.09649226069450378,-0.046772293746471405,-0.12529416382312775,0.03810066729784012,-0.18966548144817352,-0.1451653242111206,-0.09797024726867676,-0.11195188760757446,-0.09606647491455078,-0.06491066515445709,-0.028134074062108994,-0.06212081015110016,0.010915158316493034,0.03789849951863289,-0.011676166206598282,0.34241849184036255,-0.09237494319677353,-0.014260226860642433,-0.06263557076454163,0.06654593348503113,0.09613770991563797,0.07587943226099014,0.08256936818361282,0.0318286307156086,0.08126302063465118,-0.15407848358154297,0.04399882256984711,0.20474398136138916,0.09867473691701889,0.15990641713142395,0.03639845922589302,-0.0302710123360157,-0.0543835312128067,-0.07730741798877716,-0.040400076657533646,-0.19505390524864197,-0.10337547957897186,0.2540566921234131,-0.15992729365825653,-0.04036823660135269,-0.24582594633102417,0.14329278469085693,0.07096020877361298,-0.13367697596549988,0.07797049731016159,0.030751844868063927,-0.1614627093076706,0.14084966480731964,0.22551468014717102,0.075228251516819,-0.02377963811159134,0.18496409058570862,0.09395449608564377,0.039981015026569366,-0.12905137240886688,0.175910085439682,-0.13116300106048584,0.07659480720758438,-0.012667929753661156,0.09097911417484283,-0.007226266898214817,0.15313182771205902,-0.21308748424053192,-0.4125976860523224,-0.08720684796571732,0.013063198886811733,0.014736554585397243,-0.16597920656204224,0.08217735588550568,0.11720842868089676,-0.25295311212539673,0.1361980438232422,-0.07454937696456909,-0.15186594426631927,0.09818124026060104,-0.05040393024682999,-0.23677751421928406,0.14011244475841522,0.11329112201929092,0.0672062411904335,-0.011519364081323147,0.06585994362831116,0.22196368873119354,-0.04381924867630005,-0.17655256390571594,0.29785385727882385,-0.2615683376789093,0.026761462911963463,-0.23911099135875702,0.1285974532365799,0.06286364793777466,-0.08555244654417038,0.23384445905685425,0.005008732434362173,0.2725690007209778,-0.12729178369045258,-0.020427102223038673,0.20329052209854126,-0.14105187356472015,0.11074502021074295,-0.20677302777767181,-0.09551569074392319,0.27914971113204956,0.16222317516803741,-0.0875215157866478,0.0007499080384150147,-0.11972423642873764,0.006409903988242149,-0.0004026142996735871,0.03269928693771362,-0.07105674594640732,0.10162384063005447,0.3194112479686737,-0.07981652021408081,0.0941949263215065,-0.33147940039634705,0.10370809584856033,-0.011029407382011414,-0.2921642065048218,0.1977878361940384,-0.06615536659955978,-0.1734599769115448,0.10910778492689133,0.06827916204929352,-0.1049724668264389,0.2473210096359253,-0.024998165667057037,0.3215828239917755,-0.23556402325630188,-0.04726540297269821,-0.08047068119049072,0.06770247220993042,-0.1236950233578682,0.4984499216079712,-0.07178293168544769,-0.4552673101425171,-0.4416792392730713,0.0644531175494194,0.5079433917999268,-0.5049332976341248,0.0058006709441542625,0.3723224699497223,-0.21855027973651886,-0.07387514412403107,0.16064412891864777,0.14597032964229584,0.017767682671546936,0.08681360632181168,0.037433747202157974,-0.04012928903102875,-0.074558325111866,0.4941503405570984,0.04523913562297821,-0.45812851190567017,0.009128689765930176,0.08545508235692978,0.07174879312515259,0.23194409906864166,-0.05340475216507912,-0.18990018963813782,-0.1368529051542282,0.009125501848757267,0.12719136476516724,0.02930782362818718,0.14649847149848938,0.1638493686914444,-0.47839388251304626,-0.026093995198607445,0.5204702615737915,-0.6090890169143677,-0.07018237560987473,0.5268104672431946,-0.5484378337860107,-0.01873895153403282,0.4433513283729553,-0.09054479748010635,-0.03759576007723808,-0.1853305697441101,0.27906516194343567,-0.0013871166156604886,-0.14115548133850098,0.5535287261009216,0.022243330255150795,-0.5085269212722778,-0.5365898609161377,-0.07519601285457611,0.5061758756637573,-0.6091833710670471,0.04083268716931343,0.4572702646255493,0.45887959003448486,0.11126627773046494,-0.5239510536193848,0.511495053768158,-0.04627012088894844,-0.5450301170349121,-0.16714969277381897,0.10741964727640152,0.03909720852971077,0.4414997696876526,0.10735692828893661,-0.38449475169181824,0.042491570115089417,0.09727711975574493,0.17705658078193665,0.04569085314869881,0.0736365094780922,-0.12252204865217209,0.5035669207572937,-0.002523399656638503,-0.4420684576034546,-0.5994792580604553,0.07070980966091156,0.3875071704387665,-0.4307781755924225,-0.06913458555936813,0.3923256993293762,-0.2216775119304657,0.12176058441400528,0.2502674162387848,-0.6412319540977478,0.03406764939427376,0.5250291228294373,0.5675724148750305,0.12137351930141449,-0.425883024930954,-0.07211507111787796,-0.054391562938690186,0.09364178031682968,-0.05771967023611069,-0.017234204337000847,0.16990169882774353,-0.05196166783571243,-0.010675331577658653,-0.11360979080200195,-0.07758937031030655,-0.010775263421237469,-0.012059010565280914,0.04152003675699234,0.0822983980178833,-0.06052963063120842,0.0779511108994484,0.029693882912397385,-0.014158591628074646,0.03935565426945686,-0.09330424666404724,-0.017100071534514427,-0.05834459513425827,0.09207706898450851,0.12890109419822693,-0.01024553645402193,-0.06950113922357559,-0.03029835782945156,0.07193408906459808,-0.019885141402482986,0.041352469474077225,-0.0009082573815248907,0.015462711453437805,0.0792747288942337,0.07158009707927704,-0.031228268519043922,0.004265010356903076,-0.03246332332491875,-0.06615303456783295,-0.07211941480636597,0.01640212908387184,0.030900251120328903,-0.12279646843671799,-0.025381674990057945,-0.015382063575088978,-0.08325811475515366,-0.03780878335237503,-0.12317337095737457,0.015631053596735,0.01591533236205578,0.01155045349150896,0.050297811627388,0.027282927185297012,0.07203387469053268,0.12292807549238205,0.014080815017223358,-0.016577282920479774,-0.0963498204946518,0.022678561508655548,0.060397498309612274,-0.2053881138563156,-0.029589125886559486,-0.08082318305969238,0.07487697899341583,0.07285693287849426,-0.08954913169145584,0.01931379921734333,-0.03239034488797188,-0.09139567613601685,-0.03954464942216873,0.04223567247390747,0.033108241856098175,0.1908048689365387,-0.0827135294675827,0.03552989661693573,0.058315474539995193,0.08523855358362198,-0.05951407924294472,-0.12269735336303711,-0.030930686742067337,-0.004066621884703636,0.06264561414718628,0.07953307777643204,0.0817059576511383,-0.12260468304157257,-0.10298801213502884,-0.014293068088591099,-0.10288160294294357,0.01539524644613266,0.004500308074057102,-0.04201111942529678,0.015002313069999218,-0.06791175156831741,-0.17816677689552307,-0.08019660413265228,0.005192909389734268,0.14229349792003632,-0.08558687567710876,0.05853141471743584,-0.23851889371871948,-0.3275212347507477,0.00021310373267624527,0.08210033923387527,0.2673237919807434,0.13910558819770813,-0.0947669968008995,0.359454482793808,0.043986640870571136,-0.14048002660274506,0.05160914734005928,-0.10932154953479767,-0.12643782794475555,0.18024344742298126,0.04994706064462662,-0.05080800503492355,0.29810473322868347,-0.18217197060585022,0.10383958369493484,-0.243408665060997,0.0010769901564344764,0.15395191311836243,0.19168239831924438,-0.20818813145160675,0.06816930323839188,-0.06682149320840836,0.04953239485621452,-0.053261738270521164,-0.037551939487457275,-0.10862433910369873,0.004131719935685396,-0.05090837925672531,-0.19278445839881897,-0.10730722546577454,0.37332189083099365,0.02832968533039093,-0.1307721883058548,0.3208085894584656,0.043924011290073395,-0.18456996977329254,0.3500455319881439,0.03860153257846832,-0.007865390740334988,0.02936391718685627,0.02316933684051037,-0.027517380192875862,-0.15860411524772644,0.0028142265509814024,-0.02759506367146969,-0.3600442409515381,-0.09880068898200989,0.12033894658088684,0.26804912090301514,-0.015591440722346306,-0.18959780037403107,0.30315810441970825,-0.05685945227742195,-0.22713151574134827,-0.15230423212051392,0.06251902878284454,0.06473002582788467,-0.34692642092704773,0.05143359303474426,0.0927896723151207,0.03409063443541527,-0.08223231881856918,-0.2640051543712616,-0.25788694620132446,-0.08493965119123459,0.015113337896764278,0.005987025331705809,-0.026072300970554352,0.12196895480155945,0.12714825570583344,0.10002914071083069,-0.02528012916445732,-0.23882436752319336,-0.13279074430465698,0.043140310794115067,0.3211411237716675,-0.037535469979047775,-0.038536470383405685,0.2692353427410126,-0.06268619745969772,-0.2048358917236328,-0.10971111059188843,-0.0012003734009340405,-0.26129150390625,0.15247561037540436,-0.05815987288951874,-0.11380849033594131,-0.2610376179218292,-0.027334799990057945,0.10898273438215256,0.09358137845993042,0.06046624854207039,0.06952806562185287,-0.03272191807627678,0.6430159211158752,-0.2621452510356903,0.06174375116825104,-0.5956628322601318,0.24555088579654694,0.14780494570732117,-0.5750287175178528,0.15578046441078186,-0.0312446728348732,0.01894650235772133,-0.0000928029912756756,-0.0478774718940258,-0.029660657048225403,-0.15541382133960724,0.08270233869552612,-0.07405164837837219,-0.08363273739814758,-0.14522287249565125,0.6614668369293213,-0.26034075021743774,0.05156654492020607,-0.13332171738147736,-0.05761542171239853,-0.009463242255151272,0.17687733471393585,-0.04059387370944023,0.0008037480874918401,-0.11927396059036255,0.1104874461889267,0.019171038642525673,-0.047788284718990326,0.010866356082260609,0.03276584669947624,-0.5197381973266602,0.2637866139411926,0.027343960478901863,-0.6663017272949219,0.19147928059101105,0.23517867922782898,-0.577486515045166,0.28724420070648193,-0.04367126524448395,-0.09657804667949677,-0.12321679294109344,-0.05321134626865387,0.07667446881532669,-0.012532589957118034,-0.13641801476478577,0.49612581729888916,-0.2858630418777466,0.14419810473918915,-0.5831905007362366,0.1624280959367752,0.13958622515201569,-0.5837457776069641,0.26681819558143616,-0.07274889945983887,0.6161841750144958,-0.338624507188797,-0.11635878682136536,0.6405163407325745,-0.11718540638685226,-0.08289238065481186,-0.05200878903269768,-0.11711163073778152,-0.05526907369494438,0.49608904123306274,-0.1408633589744568,-0.04427971690893173,-0.0695207417011261,-0.04771164059638977,0.06982126832008362,-0.06100921332836151,-0.037172894924879074,-0.10806374996900558,0.6148783564567566,-0.13658779859542847,0.12290340662002563,-0.6788831949234009,0.1807219535112381,0.13898830115795135,-0.637152910232544,0.23545746505260468,-0.026030465960502625,-0.11917653679847717,0.04681556299328804,0.05830197408795357,-0.5914190411567688,0.28321516513824463,-0.21331454813480377,0.6585270762443542,-0.27901217341423035,0.23139357566833496,0.1095305010676384,-0.26575717329978943,0.029859179630875587,-0.20396031439304352,0.18471769988536835,-0.024534806609153748,0.12469810247421265,-0.213627889752388,-0.07328464835882187,0.2045275717973709,-0.2241622656583786,0.06872981041669846,0.11466045677661896,-0.34625259041786194,0.29830363392829895,-0.04771769791841507,-0.4273988902568817,0.03400139883160591,0.009105101227760315,-0.3161942958831787,0.1160590723156929,-0.20828363299369812,0.20512212812900543,0.0016367657808586955,0.12931469082832336,-0.18664121627807617,0.34908127784729004,-0.18781213462352753,-0.05585132911801338,-0.16951070725917816,0.017527025192975998,0.29167285561561584,0.06730711460113525,0.21293164789676666,-0.23389190435409546,-0.12444473057985306,0.22888225317001343,-0.2299518883228302,-0.09314194321632385,0.2695036232471466,-0.21414487063884735,-0.019371245056390762,0.25436529517173767,-0.0478554368019104,0.05915965139865875,0.10879295319318771,-0.0529235303401947,0.18292386829853058,0.0476178415119648,-0.2701281011104584,0.059780098497867584,-0.32316410541534424,0.22621314227581024,-0.13091860711574554,0.2275913804769516,-0.1852373480796814,0.002941463142633438,0.341886043548584,-0.04829045385122299,0.04214628413319588,-0.15913026034832,0.17859970033168793,0.12163691222667694,-0.28541409969329834,0.11905311048030853,0.1580982655286789,0.06430510431528091,-0.126870796084404,0.15803445875644684,-0.18008644878864288,0.17465659976005554,-0.022992664948105812,-0.02880578301846981,0.05644407495856285,-0.06930293142795563,-0.07596423476934433,-0.24913395941257477,0.14082279801368713,-0.27069291472435,0.15313218533992767,-0.20208674669265747,0.1156054213643074,-0.15374021232128143,-0.18808908760547638,0.2471315711736679,-0.23603050410747528,0.005450507625937462,-0.04875025153160095,-0.1285489797592163,0.006754130590707064,0.322317898273468,-0.17411909997463226,0.12973736226558685,-0.15531416237354279,0.19280372560024261,0.00328954984433949,-0.0010290187783539295,-0.2080003172159195,-0.08810111880302429,0.0003160846245009452,0.002155038993805647,-0.01814522221684456,-0.04204105585813522,-0.07521612197160721,0.014030786231160164,-0.025091230869293213,0.09566090255975723,0.13409626483917236,-0.031561478972435,-0.16459445655345917,0.05607255920767784,-0.05862211808562279,0.11356157064437866,0.13663409650325775,-0.1277502477169037,0.21024814248085022,0.07554556429386139,0.022372249513864517,0.020793454721570015,0.15167582035064697,0.13889218866825104,0.12298130989074707,-0.012368835508823395,0.1226145476102829,-0.13135753571987152,-0.08920994400978088,0.08598010241985321,-0.12045606970787048,0.005489462986588478,-0.06724583357572556,-0.04145590215921402,-0.0666852742433548,0.05687651038169861,0.08687498420476913,0.025168605148792267,-0.011251899413764477,0.08874675631523132,-0.012911817990243435,-0.06331788003444672,0.002628153655678034,-0.017711227759718895,-0.32220762968063354,0.4963862895965576,0.08705530315637589,0.033634334802627563,-0.1566981077194214,0.03306841850280762,0.06990567594766617,-0.012007063254714012,0.0032197933178395033,0.06865955889225006,-0.08251681923866272,-0.051754433661699295,-0.09078160673379898,0.07934418320655823,-0.09621579200029373,0.049519527703523636,-0.07783185690641403,-0.012255492620170116,0.04136321321129799,-0.039354804903268814,0.10795051604509354,0.21863892674446106,0.18703635036945343,0.02439110353589058,0.06526216864585876,-0.010148053988814354,0.015588616952300072,-0.003340542083606124,-0.32604315876960754,-0.13398928940296173,-0.13358290493488312,-0.2580941617488861,0.014807693660259247,-0.07521218061447144,-0.09164884686470032,0.009679094888269901,-0.011340920813381672,0.09196897596120834,0.07080231606960297,0.04662671685218811,-0.039312802255153656,0.018354762345552444,-0.10095489025115967,-0.05432752147316933,-0.09676197171211243,-0.12632891535758972,-0.057134173810482025,-0.08900503814220428,-0.03922051563858986,-0.08382005989551544,0.003626033663749695,0.15005943179130554,0.16422168910503387,0.2324914187192917,0.26531603932380676,-0.20372791588306427,-0.19992585480213165,-0.36361512541770935,0.08914460986852646,-0.087680384516716,-0.30935633182525635,0.08157593011856079,0.0748789831995964,-0.04263373091816902,0.007030768785625696,-0.028136692941188812,-0.038634054362773895,-0.026600169017910957,0.034147460013628006,-0.04414275288581848,0.04894612729549408,0.07441813498735428,0.2633906900882721,-0.26444751024246216,0.003461632179096341,-0.18714258074760437,0.08945191651582718,-0.040012504905462265,0.10461481660604477,-0.01607370190322399,-0.010024326853454113,-0.03712546452879906,0.0030575599521398544,0.025057341903448105,-0.06552740186452866,0.2247859090566635,-0.21339958906173706,-0.2428475320339203,0.10724054276943207,-0.1603538990020752,-0.24387793242931366,0.08192416280508041,-0.0852629765868187,-0.29980576038360596,0.190002903342247,0.015330939553678036,-0.029822733253240585,-0.0663590356707573,0.046013496816158295,0.10263307392597198,-0.05713125690817833,0.18066376447677612,0.2459055632352829,-0.11582180857658386,-0.20769177377223969,-0.2123129516839981,0.2594703733921051,-0.06355137377977371,-0.19751673936843872,0.2599319815635681,0.04986397549510002,0.30967968702316284,-0.24440200626850128,0.1977178156375885,0.2792072892189026,-0.20347996056079865,-0.03483228757977486,-0.04696184769272804,0.026529675349593163,0.1318461298942566,0.3305380344390869,-0.16722723841667175,-0.06437791883945465,-0.059343524277210236,0.05336383730173111,0.015238740481436253,-0.09504766017198563,-0.026033557951450348,0.24056480824947357,0.25070720911026,-0.21783651411533356,-0.24430041015148163,-0.2854205071926117,0.15226413309574127,-0.13983747363090515,-0.22241167724132538,0.22552822530269623,-0.037272557616233826,-0.005633611232042313,0.08206985145807266,-0.12597665190696716,-0.218914195895195,0.1667681485414505,0.23465141654014587,0.292502760887146,-0.1766093671321869,0.059952713549137115,0.07813166826963425,-0.016844136640429497,-0.33865654468536377,-0.10625314712524414,0.19392535090446472,0.33909517526626587,0.1152382418513298,-0.033930420875549316,0.2879749834537506,0.017804153263568878,-0.15202145278453827,0.07174642384052277,0.009702753275632858,-0.06035371124744415,-0.1343218982219696,0.10054545104503632,0.019487114623188972,0.28688833117485046,0.04103292152285576,-0.02355000376701355,-0.31401851773262024,-0.08279892057180405,0.10783814638853073,0.04523175209760666,-0.14020967483520508,-0.07536311447620392,-0.032816171646118164,0.16254493594169617,0.10571721941232681,0.004379205871373415,-0.07215990871191025,0.025454474613070488,-0.006079994607716799,0.018629787489771843,0.004999048076570034,0.2749244272708893,0.09694970399141312,-0.11336977034807205,0.3732793629169464,0.10894551128149033,-0.19235217571258545,0.3467272222042084,0.08337178826332092,-0.13306410610675812,-0.10315161198377609,-0.03346787020564079,0.08421611785888672,-0.08480595052242279,-0.0916636660695076,0.14435982704162598,-0.41953882575035095,-0.12126496434211731,0.05323182791471481,0.27970626950263977,0.011064160615205765,-0.223713681101799,0.3048902153968811,-0.02515345625579357,-0.25409558415412903,-0.3098338544368744,-0.037283409386873245,0.20968179404735565,-0.4188286364078522,-0.11341618001461029,0.14175669848918915,0.15360352396965027,-0.06136877462267876,-0.12136823683977127,-0.22444330155849457,-0.10327961295843124,0.20275896787643433,0.06518486142158508,-0.06967171281576157,0.0907614603638649,0.09584332257509232,0.12617340683937073,0.09071765094995499,-0.34167858958244324,-0.00393374590203166,0.12511155009269714,0.28494444489479065,0.1674872636795044,-0.08492396026849747,0.4048917293548584,0.08179417997598648,-0.08246374875307083,0.060470618307590485,-0.009670617990195751,-0.06557334214448929,0.32013413310050964,-0.03780290111899376,-0.1632300168275833,-0.36186304688453674,-0.083587147295475,0.039191752672195435,0.050452347844839096,-0.005968400742858648,-0.1110781580209732,0.027580294758081436,-0.35103318095207214,-0.007145768962800503,-0.015570973046123981,0.2701844573020935,0.16706103086471558,0.01841817796230316,0.36494436860084534,0.061016011983156204,-0.003969942685216665,-0.14111576974391937,-0.0015172436833381653,-0.07211735844612122,0.14784903824329376,-0.030780449509620667,-0.015731262043118477,-0.04098256677389145,0.23674876987934113,-0.0637284591794014,-0.32732337713241577,-0.20031748712062836,-0.03667842224240303,-0.11024736613035202,0.34735971689224243,-0.025604933500289917,0.10269993543624878,0.05655072256922722,0.053910739719867706,-0.0532107874751091,0.02709777094423771,-0.11808142811059952,-0.10898102819919586,0.1346099078655243,0.02019289694726467,0.3102823793888092,0.09851248562335968,0.04147633537650108,0.3334173560142517,0.02908928506076336,0.08721423894166946,0.2697807550430298,0.12485793232917786,0.06778371334075928,0.0658935084939003,-0.21599020063877106,0.06290583312511444,0.09933338314294815,-0.20730674266815186,-0.1273898035287857,-0.2370283007621765,-0.06530935317277908,0.1334892362356186,0.28652453422546387,0.16390034556388855,0.05250927060842514,0.2516765892505646,0.136597141623497,-0.1278572529554367,-0.2141725867986679,-0.10388361662626266,-0.10071350634098053,-0.22174189984798431,-0.1338229924440384,-0.06814324110746384,-0.03152790293097496,0.16485323011875153,0.014138220809400082,-0.29120373725891113,-0.2031167596578598,-0.02966409921646118,-0.03377454727888107,0.04395858570933342,-0.09209836274385452,-0.06875413656234741,0.0817645937204361,-0.0007960559451021254,-0.30534878373146057,-0.09992681443691254,-0.003681833390146494,0.34744992852211,0.04041140899062157,0.10685599595308304,0.21201935410499573,0.06665802001953125,-0.012381409294903278,-0.11226252466440201,0.13437220454216003,-0.028529517352581024,0.29798462986946106,0.1407373994588852,-0.13179057836532593,-0.30646148324012756,-0.0939464271068573,0.05016465112566948,-0.0030845908913761377,-0.009502698667347431,0.08613497018814087,0.07687316089868546,-0.1947013884782791,-0.16289012134075165,-0.012046056799590588,0.3801375925540924,-0.10678499937057495,-0.06524671614170074,0.36926332116127014,-0.06278672814369202,0.014583977870643139,0.15118727087974548,0.0015043341554701328,-0.11193863302469254,-0.06367390602827072,0.3638159930706024,0.11908067017793655,0.2005389779806137,0.048155710101127625,0.1559312492609024,-0.2692698836326599,0.16921916604042053,-0.013494293205440044,-0.022319357842206955,0.10221824795007706,-0.015874573960900307,-0.02045421116054058,-0.10858570784330368,-0.019285675138235092,-0.1723121702671051,-0.12245048582553864,-0.03693441301584244,0.022091450169682503,-0.10373572260141373,-0.11854687333106995,0.3547993004322052,-0.05151163414120674,-0.15576988458633423,0.19824743270874023,-0.1327459216117859,-0.13491448760032654,0.2117927372455597,0.20917640626430511,-0.04820359870791435,0.060710955411195755,0.012933491729199886,-0.07193616032600403,-0.07400121539831161,0.10814230144023895,0.20027831196784973,-0.3083413243293762,-0.06872567534446716,-0.14245514571666718,0.19131775200366974,-0.07158538699150085,-0.07173307240009308,0.160299614071846,0.15199032425880432,0.16686613857746124,-0.1922316551208496,0.12854446470737457,0.1941428780555725,-0.1992444545030594,-0.2218904346227646,0.06911596655845642,0.010408716276288033,0.025396963581442833,0.13174931704998016,-0.3054124116897583,-0.2258618175983429,0.09839923679828644,-0.018932219594717026,0.04142703488469124,-0.1390046626329422,-0.13703973591327667,0.10253317654132843,0.06391587108373642,-0.35082703828811646,0.026148132979869843,-0.12377180904150009,0.3609068691730499,-0.03005717508494854,-0.12405267357826233,0.16884587705135345,-0.19676095247268677,0.009952814318239689,0.016596170142292976,-0.15353454649448395,-0.06315532326698303,0.13542385399341583,0.04833351448178291,0.12033038586378098,-0.26255539059638977,0.000005462867193273269,0.0035704937763512135,-0.1993481069803238,0.03046470135450363,-0.02881237305700779,-0.004857459105551243,-0.04020870849490166,0.0009731368045322597,-0.17086508870124817,0.0390864796936512,-0.11295246332883835,-0.1882612705230713,0.37856149673461914,0.14284062385559082,0.09207790344953537,0.0947292223572731,0.09426982700824738,-0.0688837468624115,0.0202227421104908,0.09637771546840668,0.10243012011051178,0.024696078151464462,-0.021783610805869102,-0.00003664641553768888,0.13282150030136108,-0.05710352584719658,-0.014059290289878845,-0.0008556527318432927,0.0880165547132492,-0.4230912923812866,0.2519267499446869,0.000035904515243601054,0.22525066137313843,-0.0030829100869596004,-0.22540082037448883,0.00355629064142704,-0.5219424962997437,1.2623034715652466,0.7825053334236145,0.4029998481273651,-0.3385064899921417,-1.0827486515045166,-0.7374728918075562,0.771468460559845,-0.8815909028053284,-1.0436146259307861,-0.30244848132133484,0.4486452043056488,-1.2998608350753784,-1.074342131614685,0.0552840530872345,-0.32235807180404663,0.644120991230011,0.3377304673194885,-1.34531831741333,-0.7933535575866699,0.7561603784561157,-0.3688969016075134,-0.2534787654876709,0.28056594729423523,-0.3389013409614563,0.566688060760498,0.11173105984926224,-0.7363690137863159,-0.0014120761770755053,0.028191333636641502,-0.041541002690792084,-0.22050578892230988,-0.19851966202259064,-0.023529136553406715,0.07637256383895874,-0.004987973254173994,0.03766127675771713,0.03303538262844086,0.13678649067878723,-0.13664977252483368,0.36974236369132996,0.060527823865413666,-0.31931406259536743,0.09114794433116913,-0.002697691787034273,0.010241595096886158,-0.05089643970131874,0.06966082751750946,-0.12673445045948029,0.09861944615840912,-0.01383880339562893,0.002054784446954727,0.04968787729740143,-0.06144223362207413,0.16072940826416016,0.007205314934253693,-0.10386230796575546,-0.004336856305599213,0.13208310306072235,-0.020704926922917366,0.003251072484999895,0.06608540564775467,0.3040827810764313,0.0387832373380661,-0.2825598120689392,0.058260511606931686,0.00021982968610245734,0.0010531481821089983,-0.0704437866806984,0.10592760145664215,0.24678067862987518,0.26750239729881287,-0.17631709575653076,-0.10175984352827072,0.05237048119306564,0.021859336644411087,-0.08108623325824738,-0.089509978890419,0.10876823216676712,0.1603662073612213,-0.1684112250804901,0.15704186260700226,0.06516849249601364,0.0015288301510736346,-0.158235102891922,-0.02445019967854023,0.206475168466568,0.0006808899343013763,0.004906183574348688,0.39252856373786926,-0.05412892997264862,-0.10526630282402039,0.0018800824182108045,-0.1704147458076477,0.024233024567365646,-0.15659794211387634,-0.03086230158805847,0.2718730866909027,-0.030402662232518196,-0.0030003683641552925,-0.07451386749744415,-0.14471696317195892,-0.06677460670471191,-0.06873658299446106,0.02093691937625408,0.010307279415428638,0.07874200493097305,0.1417156606912613,-0.1053270697593689,-0.1347581148147583,-0.02157147228717804,-0.26445677876472473,0.18816211819648743,-0.48562076687812805,-0.02134052850306034,0.0024180132895708084,-0.039351414889097214,-0.0370023250579834,-0.3372097611427307,0.004303295630961657,0.31407344341278076,-0.39090293645858765,-0.059778764843940735,-0.023622866719961166,-0.0025216767098754644,-0.05197456106543541,0.06965526193380356,0.02876560389995575,-0.055710189044475555,-0.053750261664390564,-0.24155060946941376,0.0044506085105240345,-0.053900931030511856,-0.23269324004650116,-0.19988080859184265,0.03465592488646507,-0.27227550745010376,0.11980296671390533,0.010433806106448174,0.02213135175406933,-0.10088639706373215,0.26574307680130005,0.04152063652873039,0.13288351893424988,-0.08951131999492645,0.006529996637254953,-0.0459742434322834,-0.0049193319864571095,0.17524629831314087,0.17262248694896698,0.07876092195510864,-0.0063939583487808704,0.025341931730508804,-0.10733526945114136,0.22399947047233582,-0.023847224190831184,-0.00475227041170001,0.033969879150390625,-0.2964616119861603,0.321821928024292,-0.08212976157665253,0.057757504284381866,-0.17899446189403534,0.003778719576075673,0.10476215183734894,0.09912540763616562,-0.2663500905036926,-0.021783065050840378,0.25664782524108887,0.2160462737083435,0.009034468792378902,0.2763766050338745,0.08648887276649475,-0.12318190187215805,-0.10273690521717072,-0.1420975923538208,0.06590933352708817,0.1152837872505188,0.2647862732410431,-0.004512707237154245,0.16872680187225342,-0.12380212545394897,0.039225779473781586,0.000556370650883764,0.13481366634368896,-0.24793469905853271,0.0755046010017395,-0.0986386388540268,-0.00023931018949951977,0.12262595444917679,0.054323744028806686,0.32527345418930054,0.0696430504322052,-0.05805599316954613,-0.15754081308841705,-0.0047907400876283646,0.24175919592380524,0.012067906558513641,0.17128391563892365,0.036888714879751205,0.21182210743427277,-0.002246059011667967,-0.16323332488536835,0.03039509989321232,-0.028961222618818283,-0.046064868569374084,0.10971532762050629,0.20316845178604126,-0.30962395668029785,0.09508544951677322,-0.13031549751758575,-0.00034760209382511675,-0.17033228278160095,0.11413570493459702,0.16611342132091522,0.0043829442001879215,-0.007823162712156773,-0.003083930118009448,0.06335072964429855,0.06492249667644501,-0.0007359077571891248,-0.08991895616054535,-0.2574714124202728,0.09681656956672668,-0.41652294993400574,0.36327287554740906,0.17844775319099426,-0.00025981198996305466,0.12196289002895355,-0.49484097957611084,0.2741028368473053,-0.4032667875289917,-0.2835431396961212,0.2642400860786438,-0.17344997823238373,-0.2110545039176941,-0.33976227045059204,0.27257734537124634,-0.24812665581703186,-0.20842748880386353,-0.05437714606523514,0.5755319595336914,-0.027078935876488686,-0.0004928521229885519,-0.2761565148830414,0.24674469232559204,0.34398144483566284,-0.0021779469680041075,0.37226101756095886,-0.14889617264270782,-0.3590362071990967,-0.3310001790523529,-0.0002721547498367727,0.05206034332513809,-0.07994801551103592,-0.09781771153211594,0.028630714863538742,0.14374132454395294,0.007735727354884148,0.0004301261797081679,-0.05080766975879669,-0.24430307745933533,-0.2505890429019928,-0.07376629114151001,-0.04887114465236664,-0.05668003112077713,-0.16491694748401642,0.268296480178833,-0.13770070672035217,-0.08888645470142365,0.1073109358549118,0.06967328488826752,-0.05193148925900459,0.4117416441440582,-0.2866562604904175,0.00044211631757207215,0.19145116209983826,-0.2865573763847351,-0.15951459109783173,-0.0006381965358741581,-0.02327813021838665,-0.24463403224945068,0.0921286791563034,-0.10171473771333694,0.001895930152386427,-0.10496707260608673,0.11405642330646515,0.1365676075220108,-0.0967026799917221,0.02016979455947876,0.010520651936531067,-0.001550281303934753,-0.05757088586688042,0.09696783125400543,-0.046000223606824875,0.04400728642940521,0.14111968874931335,-0.03647058084607124,-0.13748599588871002,-0.11648226529359818,0.07374346256256104,0.19050806760787964,0.10258334875106812,0.06314364820718765,0.11778350919485092,0.039464619010686874,-0.040083106607198715,0.0032397296745330095,-0.17607414722442627,0.21084506809711456,0.013457069173455238,0.005052117630839348,-0.10917047411203384,0.11581374704837799,-0.04002818092703819,-0.09905052185058594,0.0018467663321644068,-0.029642080888152122,-0.08315803110599518,0.025958292186260223,-0.06127970293164253,0.06138317286968231,-0.18994054198265076,0.00046808115439489484,-0.26926466822624207,0.024564193561673164,-0.0877365916967392,0.022785192355513573,0.029184827581048012,0.0796191543340683,-0.24936148524284363,-0.02566557563841343,-0.21554085612297058,-0.1413165181875229,-0.02242140658199787,0.004790690261870623,0.13193845748901367,0.14894860982894897,0.00499142799526453,-0.0003792585339397192,0.2390774041414261,-0.14345450699329376,-0.051695406436920166,0.00036410748725757003,0.11681831628084183,-0.18169477581977844,-0.12572522461414337,-0.12096202373504639,-0.0003768371825572103,-0.04942307248711586,-0.20408038794994354,-0.051524970680475235,0.023453690111637115,-0.16340011358261108,0.07618633657693863,-0.004713010508567095,-0.07632414251565933,-0.12258584797382355,-0.26847562193870544,-0.23607677221298218,-0.19400760531425476,-0.1419912725687027,0.33581089973449707,0.07684232294559479,-0.07659199088811874,0.07906369864940643,-0.08363567292690277,-0.005135668441653252,-0.11673706024885178,0.07547838240861893,-0.16894914209842682,0.00399723369628191,0.11372563242912292,-0.25244763493537903,-0.2685936987400055,0.004430942703038454,-0.01566261239349842,-0.2624514102935791,0.043978288769721985,0.27684104442596436,0.0020441189408302307,0.13648420572280884,-0.24362638592720032,0.11199994385242462,-0.4306669533252716,0.30536019802093506,0.17101433873176575,0.0036526501644402742,0.11236446350812912,-0.2528567910194397,-0.02513394132256508,-0.3487672805786133,-0.18123310804367065,0.2108725756406784,-0.29765594005584717,-0.33309200406074524,-0.3926428258419037,0.08127764612436295,-0.3126045763492584,-0.31352248787879944,-0.1635292023420334,0.23771731555461884,-0.30357059836387634,-0.0007150089368224144,-0.10168860107660294,0.24161580204963684,0.01273099984973669,-0.0005523792933672667,0.20515809953212738,-0.07104338705539703,-0.17568515241146088,-0.18790876865386963,0.0030573455151170492,-0.07300816476345062,-0.23738473653793335,-0.3080875873565674,0.29379934072494507,-0.08712094277143478,-0.09883445501327515,-0.0010112783638760448,-0.09185347706079483,-0.16843324899673462,-0.06763700395822525,0.1366770714521408,-0.018493298441171646,0.05102330073714256,0.12242541462182999,-0.03630320727825165,-0.030290286988019943,-0.24743559956550598,-0.18991151452064514,-0.0975722223520279,0.013369577005505562,-0.011264034546911716,-0.13086415827274323,0.00018753492622636259,0.14373339712619781,-0.2024511992931366,-0.10493596643209457,0.003662142902612686,-0.08220570534467697,0.03119661659002304,-0.03308229520916939,0.018901504576206207,-0.002548983320593834,-0.11071297526359558,-0.053751248866319656,-0.16806921362876892,0.24687393009662628,0.10203039646148682,-0.05357945337891579,0.0013537055347114801,0.08323296904563904,0.02420220710337162,0.19555577635765076,-0.056835953146219254,0.22848249971866608,0.08417072892189026,-0.08829788118600845,-0.22697889804840088,-0.0852854996919632,-0.1344657987356186,-0.15190255641937256,-0.011649495922029018,0.3348066508769989,0.06762059032917023,0.11194146424531937,-0.0001774364209268242,-0.17659896612167358,0.045324184000492096,0.04859156906604767,-0.0031637896317988634,0.10361505299806595,0.1871781051158905,-0.07627703249454498,0.021617429330945015,0.0037602109368890524,0.09566646814346313,0.034208957105875015,0.2789321541786194,-0.15034018456935883,-0.15272407233715057,0.054379671812057495,0.0006196991889737546,0.2360241413116455,0.11164095997810364,0.036359455436468124,-0.3289256691932678,-0.2375294715166092,0.24655114114284515,0.10530135035514832,-0.1872495412826538,0.285314679145813,0.16940848529338837,-0.16293680667877197,-0.20721913874149323,-0.18707266449928284,-0.09534968435764313,0.046975117176771164,0.0003103870549239218,-0.08318082243204117,0.12607832252979279,-0.23859165608882904,0.0006044147885404527,0.3783203661441803,-0.3839998245239258,-0.11960334330797195,0.05877594277262688,0.0019672480411827564,0.14254415035247803,-0.2321387678384781,-0.05958056449890137,0.24484947323799133,0.11302810162305832,-0.06938072293996811,-0.0005605353508144617,0.3070910573005676,-0.33231472969055176,0.01339466031640768,-0.21259166300296783,0.25844302773475647,0.014290418475866318,0.10872754454612732,0.06720276176929474,-0.11906580626964569,0.2593998908996582,0.12016323953866959,0.15222008526325226,0.13958114385604858,-0.18259595334529877,0.43867382407188416,0.0004473767476156354,0.05636901780962944,0.3541918694972992,0.021992824971675873,0.0031496756710112095,0.10519220679998398,-0.06580417603254318,0.2859502136707306,-0.2884136736392975,-0.0007343938923440874,-0.03607482090592384,-0.1889420449733734,-0.32525452971458435,0.21546925604343414,0.2690984010696411,0.1355222463607788,0.00009252082236343995,-0.019740507006645203,-0.06252585351467133,-0.14181213080883026,-0.16172322630882263,0.016593672335147858,-0.11273495852947235,-0.19426989555358887,0.22047364711761475,-0.21423311531543732,-0.14231885969638824,-0.2851262390613556,-0.12351568788290024,-0.035381827503442764,-0.1453305184841156,-0.2859812378883362,-0.00010353115067118779,0.25260496139526367,-0.2351880669593811,0.048956431448459625,0.00019495387095957994,-0.05688856914639473,0.00007478136103600264,0.08331377059221268,-0.02182149887084961,0.0035317684523761272,-0.06566766649484634,0.084833525121212,0.20545236766338348,-0.11951566487550735,0.146518737077713,-0.02260497771203518,-0.00114622141700238,0.19732660055160522,0.07422055304050446,-0.06183096393942833,0.08403351157903671,-0.15377429127693176,-0.3533422350883484,-0.18697276711463928,0.12794895470142365,-0.0811195820569992,0.14577557146549225,0.20430536568164825,0.2035011202096939,-0.1551976501941681,0.10064975917339325,-0.08179356157779694,-0.0007497758488170803,0.07437243312597275,0.2520882189273834,0.26763033866882324,0.00031468603992834687,-0.07721029967069626,0.2656210958957672,0.09546826779842377,-0.036847516894340515,0.00382764614187181,-0.014729009941220284,-0.1423894315958023,-0.018540607765316963,0.3086366653442383,-0.17185328900814056,0.07998363673686981,0.0005656774737872183,0.058392830193042755,-0.08822083473205566,-0.05710003152489662,-0.04021129757165909,0.07789450138807297,-0.05109638348221779,0.21090607345104218,0.09331259876489639,0.10280851274728775,0.07985781133174896,0.021209346130490303,-0.018548518419265747,0.053899236023426056,-0.11453774571418762,0.05068892240524292,0.0007046351092867553,0.24696779251098633,-0.027885982766747475,-0.07746413350105286,-0.004710928536951542,-0.15346169471740723,-0.22559593617916107,0.20453403890132904,0.13687248528003693,0.0007643806748092175,-0.018232207745313644,-0.14799857139587402,-0.04186500236392021,-0.2530980408191681,-0.13785037398338318,-0.17676889896392822,0.0015275918412953615,-0.16195794939994812,-0.36017462611198425,-0.13723969459533691,-0.1412775069475174,0.11309237033128738,0.21534575521945953,0.1041187196969986,0.12380693107843399,0.16710662841796875,-0.13009412586688995,-0.017895139753818512,0.1155824139714241,0.09292446821928024,-0.011763465590775013,-0.255715936422348,-0.0011700509348884225,0.1549566686153412,0.21033975481987,0.01953594945371151,-0.00676623685285449,-0.07058864086866379,-0.10881935060024261,-0.0953613668680191,0.22481006383895874,0.0032276699785143137,-0.019051749259233475,-0.06265395879745483,0.1623186320066452,-0.22694562375545502,0.03453831374645233,0.280528724193573,-0.000813696242403239,0.03337034210562706,-0.20137648284435272,0.042353563010692596,-0.3370588421821594,0.09756503999233246,0.15182159841060638,-0.26862654089927673,-0.1491188257932663,0.009640145115554333,0.06864876300096512,-0.2595449388027191,-0.02907467447221279,-0.06468087434768677,0.07390617579221725,-0.03166786953806877,0.0024860831908881664,-0.03804418444633484,0.3793279230594635,-0.11166152358055115,0.002216935623437166,0.2516191303730011,0.00533668976277113,-0.08792270720005035,-0.02311193384230137,0.0026830078568309546,0.08226742595434189,-0.16072845458984375,0.1274518072605133,0.10892162472009659,0.1419714242219925,-0.01090416219085455,0.0023104751016944647,0.061771128326654434,0.0878199115395546,0.02373378351330757,-0.18940860033035278,0.2608489394187927,0.18829810619354248,0.1992083489894867,-0.05818093940615654,0.018184898421168327,-0.056782860308885574,0.025157935917377472,0.03772824630141258,0.15731845796108246,0.02518017403781414,-0.11142606288194656,0.0034889159724116325,0.15524256229400635,-0.07977397739887238,-0.040458835661411285,-0.0035504144616425037,0.23096764087677002,-0.2874809801578522,0.3321050703525543,0.05690574273467064,0.00034241945832036436,0.17971256375312805,-0.33755555748939514,0.25852468609809875,0.07484456896781921,-0.21122798323631287,0.04594847187399864,0.0011195200495421886,0.08835229277610779,-0.04212638735771179,-0.11501873284578323,-0.2199602872133255,-0.01217748410999775,0.01627325639128685,-0.009997724555432796,0.07689950615167618,0.17924228310585022,0.1880999058485031,0.08938828855752945,0.011461373418569565,0.14920756220817566,-0.28116926550865173,0.056684862822294235,-0.000918875855859369,0.29565006494522095,0.21818122267723083,-0.16365958750247955,-0.00666894530877471,0.06300035864114761,0.038979560136795044,0.09192062169313431,0.14859570562839508,0.0008394203614443541,0.08050929009914398,0.11250080913305283,-0.3755055069923401,0.02712252177298069,0.097244992852211,0.05943808704614639,-0.00019437448645476252,0.0818791538476944,-0.19951219856739044,-0.14282643795013428,0.1465257704257965,-0.2101997584104538,-0.1387186348438263,-0.16093885898590088,0.18409964442253113,-0.33012717962265015,-0.12568914890289307,0.11284477263689041,-0.05864712595939636,0.004704508930444717,0.07281982898712158,-0.2416328638792038,-0.0009148946264758706,0.014913598075509071,-0.11367950588464737,0.048276543617248535,-0.0024333223700523376,0.05054193362593651,-0.08333295583724976,0.037496596574783325,-0.20486581325531006,-0.00402640039101243,0.032619014382362366,-0.11411415040493011,-0.008698259480297565,0.08283504098653793,0.07101703435182571,-0.09903726726770401,0.0012640225468203425,0.1302887350320816,0.290458083152771,-0.13742417097091675,0.0809212327003479,-0.013946433551609516,-0.013041684404015541,0.2430136352777481,0.08234915882349014,-0.12147564440965652,0.1276555061340332,0.031636446714401245,-0.0645735040307045,0.054676469415426254,-0.12341469526290894,-0.4580075144767761,-0.00145167694427073,-0.273275226354599,0.1461896002292633,-0.04899318888783455,0.0006433704402297735,0.18494373559951782,-0.2464572787284851,0.12028606235980988,-0.06712260842323303,-0.0028235192876309156,0.0574587807059288,0.057032208889722824,0.13974596560001373,-0.2872398793697357,-0.1488236039876938,0.13597550988197327,-0.0010227010352537036,0.18960584700107574,0.005708042066544294,0.3056392967700958,-0.2207615226507187,-0.2350892871618271,0.5337662100791931,-0.11010510474443436,-0.23429745435714722,-0.021118029952049255,0.24748405814170837,-0.3898096978664398,-0.3536853492259979,-0.25484156608581543,0.10952198505401611,0.22820712625980377,0.000715424248483032,-0.22115352749824524,0.31069228053092957,0.06489205360412598,-0.0008915327489376068,0.42110851407051086,-0.31332769989967346,-0.2674669325351715,0.23508940637111664,-0.0004021597851533443,-0.08163677901029587,0.09162858128547668,-0.31398603320121765,0.23346306383609772,-0.01544241700321436,0.1424136608839035,0.005412260536104441,0.3105006814002991,0.15414217114448547,-0.09324796497821808,-0.17777104675769806,0.26874926686286926,0.1757623255252838,-0.0828620195388794,0.1191292330622673,0.1088465228676796,0.2604065537452698,0.24013333022594452,0.04564385488629341,-0.042585913091897964,-0.07003900408744812,-0.03249809890985489,-0.004345790017396212,0.04210217669606209,0.28754228353500366,-0.09946498274803162,-0.005249741952866316,0.09750646352767944,-0.4279291033744812,0.10266275703907013,-0.13907699286937714,0.0022584409452974796,-0.07561881840229034,0.0883132666349411,-0.2577684819698334,0.17034317553043365,0.13120098412036896,-0.038580819964408875,0.004483909346163273,-0.06651339679956436,-0.0733363926410675,0.010065989568829536,-0.05823071300983429,-0.05992677062749863,0.013125423341989517,0.33050864934921265,-0.1094430610537529,-0.0638989582657814,-0.18866068124771118,-0.10305362939834595,-0.30079522728919983,-0.09670519828796387,-0.12123613804578781,0.19955015182495117,0.001521595986559987,-0.2921096980571747,-0.09406966716051102,-0.05059530958533287,-0.0003085034841205925,0.037791453301906586,0.20193302631378174,-0.05169399082660675,0.1189926341176033,-0.0024965901393443346,0.2154785394668579,-0.23559367656707764,-0.05874699726700783,0.00775531679391861,-0.39889198541641235,0.10451392084360123,0.0006004616734571755,0.12699317932128906,-0.0720231831073761,0.07360979169607162,-0.47264817357063293,0.030432777479290962,-0.0925956666469574,0.14150162041187286,0.30209654569625854,-0.23258601129055023,0.04342035949230194,0.0769583210349083,0.1621008813381195,0.029400166124105453,0.2972980737686157,0.1806258112192154,-0.0017148905899375677,-0.1112188920378685,-0.014580631628632545,-0.05040363594889641,-0.005649673752486706,-0.09039681404829025,0.4056077003479004,0.05152551084756851,-0.10393111407756805,0.0017659132136031985,0.054930463433265686,0.07850553840398788,-0.1503438651561737,-0.2664487063884735,-0.20290933549404144,0.10316276550292969,0.0012959901941940188,0.01603764109313488,0.36381304264068604,0.015853386372327805,0.061201050877571106,-0.23832859098911285,-0.07523942738771439,-0.3927048146724701,0.05267426744103432,0.04642338305711746,-0.07221890240907669,0.08310022950172424,0.1502934992313385,-0.1409805566072464,0.13292568922042847,-0.11326202005147934,0.0020670706871896982,0.2818940579891205,-0.1797095090150833,-0.14953932166099548,0.004686345811933279,0.0015148204984143376,0.025001877918839455,-0.27582240104675293,0.20518667995929718,0.002034235978499055,-0.0791044533252716,-0.1735078990459442,0.038434162735939026,0.06626290827989578,-0.3218158781528473,0.18600653111934662,-0.0018938437569886446,-0.06070011109113693,0.043373387306928635,0.13627637922763824,-0.18435923755168915,0.022900745272636414,0.0937349870800972,0.43089380860328674,-0.025669598951935768,0.17749974131584167,0.1386159062385559,-0.1368604153394699,0.03406321629881859,0.15867796540260315,-0.41528135538101196,0.060391467064619064,0.0031233439221978188,-0.12142904102802277,0.1294376701116562,-0.3444620966911316,0.0044029830023646355,0.07102740556001663,-0.16047069430351257,0.21990953385829926,0.13277819752693176,-0.0013552762102335691,0.2690006196498871,-0.279432475566864,-0.3149064779281616,0.29215821623802185,0.16971246898174286,-0.15683959424495697,-0.0008835866465233266,0.1459684669971466,0.010089028626680374,-0.050393667072057724,-0.15861551463603973,0.12178242206573486,0.04292372986674309,0.09063611924648285,0.08586181700229645,0.015780940651893616,0.011087600141763687,-0.04807319864630699,-0.07880688458681107,-0.25437062978744507,0.03766919672489166,-0.2732014060020447,0.0021632942371070385,-0.14083781838417053,-0.23818069696426392,0.02265048399567604,0.005462982226163149,0.21797901391983032,-0.18074336647987366,0.21591655910015106,0.07057271152734756,-0.16189469397068024,0.3740088641643524,-0.1993628442287445,-0.025233084335923195,-0.4081452190876007,0.012815959751605988,-0.1406043916940689,-0.20073530077934265,0.07003787159919739,-0.21131230890750885,-0.18854518234729767,-0.0963573306798935,0.01731332577764988,0.042888492345809937,-0.15510700643062592,-0.2006349116563797,-0.05710536241531372,0.2766457498073578,-0.17679040133953094,-0.2610364556312561,-0.143426313996315,-0.45923715829849243,-0.17139175534248352,0.1048651784658432,-0.11832769960165024,-0.05917439982295036,-0.260929137468338,0.19605311751365662,0.03669319301843643,0.1575673222541809,-0.20867182314395905,-0.21797284483909607,0.3453473448753357,-0.47368407249450684,0.09515094757080078,-0.03344818204641342,-0.1626129001379013,0.12379956990480423,-0.04594114422798157,-0.22035835683345795,-0.05361127853393555,0.06863313913345337,0.281908243894577,-0.11344343423843384,-0.015543357469141483,-0.07405880838632584,-0.06352167576551437,-0.1579873114824295,0.04526885226368904,0.006167377810925245,0.2519725263118744,0.15157479047775269,-0.26218050718307495,-0.05196649208664894,-0.35581979155540466,0.21740661561489105,0.05032394453883171,0.19822350144386292,0.1013660803437233,0.1416313499212265,-0.19882887601852417,-0.2904200851917267,-0.1626809537410736,0.06206675246357918,0.12003237009048462,0.24904079735279083,0.030118415132164955,-0.2836460769176483,-0.253147155046463,-0.11782010644674301,0.2323104292154312,0.24465405941009521,0.04070374369621277,0.026085883378982544,0.12862220406532288,0.15220072865486145,-0.23539574444293976,0.0896538496017456,-0.04676146060228348,0.03703511506319046,-0.19464890658855438,-0.18112993240356445,0.1915525197982788,-0.21508152782917023,-0.18266457319259644,0.04690125584602356,-0.16603940725326538,-0.02795954793691635,0.13722233474254608,-0.17544957995414734,-0.13760781288146973,0.17360778152942657,0.24138152599334717,-0.03837466984987259,-0.25821253657341003,-0.08431396633386612,0.09969958662986755,0.20910967886447906,0.16659587621688843,0.21193495392799377,-0.25678253173828125,-0.07694822549819946,-0.23269689083099365,0.26688888669013977,-0.18952211737632751,0.4189856946468353,0.11748721450567245,0.2402813732624054,0.0693943053483963,-0.41063591837882996,0.024694576859474182,0.03356064110994339,-0.13259613513946533,-0.15071597695350647,0.06990360468626022,0.1788550317287445,0.13994313776493073,-0.44397616386413574,0.010573942214250565,0.1897335946559906,-0.14971347153186798,-0.29567351937294006,-0.07256615161895752,0.15461128950119019,0.0437341034412384,0.009831401519477367,-0.0633239820599556,0.4207600951194763,0.12074649333953857,0.12648501992225647,-0.23078258335590363,-0.08372245728969574,-0.04041105508804321,0.09362953901290894,0.15476037561893463,-0.09879130125045776,0.08728817105293274,-0.09450629353523254,0.4010225832462311,0.20620283484458923,-0.0971178486943245,-0.2542131245136261,-0.03336536884307861,0.020274491980671883,-0.18947730958461761,-0.07892569899559021,-0.2292204052209854,-0.23375312983989716,0.20401045680046082,-0.3088058829307556,0.37136927247047424,0.14702428877353668,0.15256105363368988,-0.05346818268299103,-0.02963053248822689,-0.2244284749031067,-0.04414830729365349,0.17779438197612762,-0.27785658836364746,0.057740140706300735,0.17727890610694885,-0.12670563161373138,-0.027072880417108536,0.30130690336227417,0.0177073385566473,0.17025059461593628,-0.24121099710464478,-0.009360549971461296,0.08400875329971313,-0.05939599126577377,-0.03508111461997032,-0.18968066573143005,0.26352983713150024,0.026337243616580963,0.11054687947034836,-0.43492165207862854,0.0034413207322359085,0.28918445110321045,-0.16203226149082184,0.10490550845861435,0.1914895921945572,-0.09283245354890823,0.12332136929035187,0.03977213054895401,-0.2520827651023865,-0.20042449235916138,0.12260131537914276,0.27335047721862793,-0.09410206973552704,-0.112155482172966,0.26701828837394714,-0.0018977215513586998,0.08929026871919632,0.062472037971019745,0.08201923966407776,-0.3978453576564789,-0.006851979997009039,-0.16395290195941925,0.37398871779441833,-0.021625222638249397,-0.11826038360595703,0.2014128416776657,0.233628511428833,-0.15303702652454376,-0.2352372705936432,0.13318106532096863,0.19259139895439148,0.4356313645839691,-0.45882368087768555,0.03663225844502449,0.09162070602178574,-0.1904943883419037,-0.002249606419354677,-0.2524852454662323,-0.22587795555591583,0.13644471764564514,0.056790709495544434,0.04196237400174141,0.2253543734550476,-0.08354673534631729,-0.23777146637439728,-0.3219189941883087,0.37118637561798096,0.0776946097612381,-0.24335837364196777,0.12796488404273987,-0.796634316444397,0.007214427925646305,-0.24870836734771729,-0.19956940412521362,0.681025505065918,-0.10003829002380371,0.050621043890714645,0.5010946393013,0.310761421918869,-0.4464248716831207,0.1409626305103302,-0.1795598864555359,0.0858793780207634,-0.33350610733032227,-0.02390138804912567,-0.23345732688903809,0.15831401944160461,-0.06293667107820511,-0.025457194074988365,-0.11179796606302261,0.5732367634773254,-0.06733597069978714,-0.0814308300614357,-0.1365462988615036,-0.4547930359840393,0.11513377726078033,0.10535997152328491,-0.16992919147014618,-0.5114452838897705,0.24518367648124695,0.35478800535202026,0.0062821414321660995,0.014279083348810673,0.07098451256752014,0.05514564365148544,0.17680048942565918,0.19235989451408386,0.6203018426895142,0.13937415182590485,0.07224279642105103,-0.05698901414871216,-0.14622244238853455,0.11102220416069031,0.5458704829216003,-0.42377784848213196,0.16427311301231384,-0.14646410942077637,0.4648320972919464,0.040950875729322433,-0.3122205436229706,0.16702979803085327,0.0421987920999527,0.01426557544618845,0.08079590648412704,0.1570385992527008,-0.46021682024002075,0.4098975360393524,-0.25711560249328613,0.09168919175863266,-0.04826125130057335,0.001145863556303084,-0.09523437917232513,0.049293823540210724,-0.1397974044084549,-0.2994149923324585,-0.33191439509391785,0.17647764086723328,-0.02182905748486519,0.2626979649066925,-0.23979562520980835,-0.23212051391601562,0.07313413918018341,0.005660626571625471,0.041094060987234116,-0.09648559242486954,0.14675012230873108,-0.3089643120765686,0.04890233650803566,-0.36839592456817627,0.11359288543462753,-0.013803169131278992,0.1214752346277237,-0.1400839388370514,0.10082357376813889,0.1203547865152359,-0.41816383600234985,0.1866578310728073,-0.15599241852760315,0.09369780123233795,-0.05794787034392357,0.1049065813422203,-0.022774972021579742,0.018957067281007767,-0.02760975994169712,-0.570181667804718,-0.23931999504566193,-0.07444413751363754,0.25075629353523254,0.008877133950591087,0.1756918877363205,0.16533565521240234,-0.38051337003707886,0.13082356750965118,-0.11718375980854034,-0.2934797704219818,-0.035764314234256744,-0.24434776604175568,-0.07275685667991638,0.021840602159500122,-0.2438880354166031,-0.10295119881629944,-0.10102406144142151,-0.1123671606183052,-0.07781652361154556,-0.047981321811676025,-0.22011561691761017,-0.12609454989433289,0.0699382945895195,-0.14881612360477448,0.231559619307518,0.5212960243225098,-0.19998696446418762,-0.14533042907714844,-0.07267720997333527,-0.13834713399410248,0.42497020959854126,0.12901264429092407,0.027097897604107857,-0.062457840889692307,-0.019575100392103195,-0.07801893353462219,-0.24129539728164673,-0.053108617663383484,0.1921176314353943,0.036604590713977814,0.17718809843063354,0.10172698646783829,0.12230917066335678,-0.04141060262918472,0.05945488438010216,-0.36651745438575745,-0.050793230533599854,-0.12513047456741333,-0.16919401288032532,0.11377183347940445,0.07056873291730881,-0.03616464138031006,0.2608657479286194,0.02506059966981411,-0.03416970744729042,-0.12460970878601074,-0.6575563549995422,0.042892683297395706,-0.2702004015445709,0.03517219051718712,0.019254738464951515,0.05200931429862976,-0.029529748484492302,-0.1480206549167633,-0.48602572083473206,0.15424832701683044,0.19019237160682678,-0.28412777185440063,-0.07772549986839294,-0.21989350020885468,0.15329168736934662,0.1533859670162201,0.24157728254795074,-0.09165911376476288,0.1410493403673172,0.013786532916128635,-0.048828329890966415,-0.05188506841659546,0.16027987003326416,-0.25793009996414185,0.16317029297351837,-0.0684778019785881,0.02178971841931343,-0.23747068643569946,-0.5080540776252747,0.16059662401676178,-0.00785377062857151,0.41937294602394104,-0.35330304503440857,0.04812541976571083,0.05021865665912628,-0.0649600401520729,-0.11350400000810623,-0.20567451417446136,-0.10394177585840225,-0.5940442681312561,0.4190448224544525,0.5554789900779724,0.5810384750366211,-0.02644173614680767,-0.5610848069190979,-0.5472787618637085,0.18594107031822205,0.3448183536529541,0.16724719107151031,0.3749646842479706,-0.10003235191106796,-0.19652573764324188,-0.5143844485282898,0.45742225646972656,-0.015659062191843987,-0.35072124004364014,0.38536739349365234,0.09045818448066711,0.03121849335730076,0.15760032832622528,0.14742745459079742,0.7845597863197327,-0.5838663578033447,0.024111522361636162,-0.1592656522989273,0.40337616205215454,-0.11435011774301529,0.14635255932807922,0.22650134563446045,0.10514865070581436,0.44206422567367554,-0.5740202069282532,0.07646815478801727,0.027501849457621574,0.2811677157878876,-0.021412434056401253,0.2154729813337326,-0.2965835928916931,-0.11682353168725967,-0.08484463393688202,0.02976350113749504,0.03082389198243618,-0.29544684290885925,0.2261378914117813,0.26301831007003784,-0.8358902335166931,0.4852995276451111,-0.23177336156368256,0.4683306813240051,-0.3733731508255005,-0.007495126686990261,0.13410070538520813,-0.11013780534267426,-0.053712017834186554,0.11581030488014221,-0.10088570415973663,0.05366544798016548,-0.013916540890932083,0.052668068557977676,0.05337300896644592,-0.0995476022362709,0.2308407425880432,0.29351547360420227,-0.20494310557842255,-0.06875715404748917,-0.11434248089790344,-0.5303962826728821,0.7554521560668945,-0.07294130325317383,0.541181206703186,-0.46124163269996643,0.10451509058475494,0.4939882159233093,-0.4598424434661865,-0.07516839355230331,-0.30811917781829834,0.2807418406009674,-0.26209214329719543,-0.03201201558113098,0.46656572818756104,-0.012328238226473331,0.010936173610389233,-0.06876778602600098,0.4622134268283844,0.39956140518188477,-0.3296549320220947,-0.46182501316070557,0.3828240633010864,0.37216418981552124,0.0822964459657669,-0.17453941702842712,0.30698883533477783,0.22008909285068512,0.46531784534454346,-0.7675560116767883,0.0589936263859272,-0.053098004311323166,-0.10377244651317596,-0.183562234044075,0.01607951708137989,0.03389102593064308,-0.309906929731369,0.09053947776556015,-0.18645575642585754,0.13740554451942444,0.2874343991279602,0.12112867087125778,0.004268819000571966,0.15045227110385895,0.08446818590164185,0.187198206782341,0.1907050758600235,0.09180127829313278,-0.07466226816177368,-0.20919790863990784,0.21782079339027405,0.005153500009328127,0.19869205355644226,-0.2436308115720749,0.23889446258544922,-0.05703437700867653,-0.07951730489730835,-0.07740040123462677,-0.11232519894838333,-0.03730861470103264,-0.12159790843725204,0.00905944500118494,0.08383605629205704,-0.0697057694196701,-0.13632698357105255,0.16234341263771057,0.03813005983829498,0.12417807430028915,-0.020902877673506737,0.21158570051193237,-0.10619143396615982,0.02371443435549736,-0.12294387072324753,-0.23121525347232819,0.1557086855173111,0.12221930921077728,0.13561436533927917,-0.16077716648578644,-0.011048933491110802,0.2948324978351593,-0.23536764085292816,-0.04875754937529564,0.013882366940379143,0.010855142027139664,0.186958909034729,0.059345126152038574,-0.08477140218019485,0.18525630235671997,0.08440893143415451,-0.14669747650623322,-0.12276799231767654,-0.20265114307403564,0.19714170694351196,-0.012384578585624695,-0.015635373070836067,0.12138817459344864,-0.06159002333879471,-0.2858365476131439,0.27860957384109497,0.04613598808646202,0.24951988458633423,-0.27270936965942383,-0.10748283565044403,0.08985810726881027,0.11585795879364014,-0.0706976056098938,-0.1318591684103012,0.1810658574104309,0.4021069407463074,-0.11558974534273148,-0.34157299995422363,0.04592658579349518,0.07919823378324509,-0.028947865590453148,0.23896053433418274,0.0010887683602049947,0.1386404186487198,-0.03227813169360161,-0.2040122151374817,0.12721788883209229,-0.007927153259515762,-0.09087113291025162,-0.06577974557876587,0.0755479484796524,0.33487197756767273,-0.2905365228652954,-0.031875353306531906,-0.3933224081993103,-0.10555123537778854,-0.052166856825351715,-0.10638392716646194,0.022614741697907448,-0.15714558959007263,0.00072811683639884,0.06329190731048584,0.027996506541967392,0.23636497557163239,-0.32548269629478455,0.07447437196969986,-0.07316526770591736,-0.19939565658569336,0.1489877849817276,-0.034276191145181656,-0.6083620190620422,0.2883679270744324,-0.021022461354732513,-0.2597707509994507,-0.06244382634758949,-0.08758195489645004,0.20079772174358368,0.008661861531436443,0.1986483782529831,-0.2636404037475586,0.1411731243133545,-0.08057411760091782,-0.24925604462623596,-0.25972333550453186,0.10673495382070541,0.3981862962245941,0.14730705320835114,-0.029900090768933296,-0.17121368646621704,-0.2305404096841812,-0.12212152779102325,0.2981710731983185,